<?xml version="1.0"?>
<opencv_storage>
<stage13>
  <maxWeakCount>8</maxWeakCount>
  <stageThreshold>-1.6710107326507568e+00</stageThreshold>
  <weakClassifiers>
    <_>
      <internalNodes>
        0 -1 889962 -1.8391117919236422e-03</internalNodes>
      <leafValues>
        2.4331210553646088e-01 -7.7974683046340942e-01</leafValues></_>
    <_>
      <internalNodes>
        0 -1 997928 1.4299611211754382e-04</internalNodes>
      <leafValues>
        -6.7670994997024536e-01 3.0067467689514160e-01</leafValues></_>
    <_>
      <internalNodes>
        0 -1 132287 -3.2785530202090740e-03</internalNodes>
      <leafValues>
        4.9727222323417664e-01 -4.7707948088645935e-01</leafValues></_>
    <_>
      <internalNodes>
        0 -1 334061 -1.0947530157864094e-02</internalNodes>
      <leafValues>
        4.8950031399726868e-01 -5.0560426712036133e-01</leafValues></_>
    <_>
      <internalNodes>
        0 -1 917021 -2.4300788936670870e-04</internalNodes>
      <leafValues>
        -3.9279469847679138e-01 6.3194990158081055e-01</leafValues></_>
    <_>
      <internalNodes>
        0 -1 998844 6.8606066633947194e-05</internalNodes>
      <leafValues>
        -8.5334432125091553e-01 3.0892565846443176e-01</leafValues></_>
    <_>
      <internalNodes>
        0 -1 180731 -1.7410186119377613e-03</internalNodes>
      <leafValues>
        4.4723528623580933e-01 -5.4682236909866333e-01</leafValues></_>
    <_>
      <internalNodes>
        0 -1 998780 -3.7038724985904992e-04</internalNodes>
      <leafValues>
        4.0371656417846680e-01 -5.6810462474822998e-01</leafValues></_></weakClassifiers></stage13>
</opencv_storage>
