<?xml version="1.0"?>
<opencv_storage>
<stage9>
  <maxWeakCount>7</maxWeakCount>
  <stageThreshold>-1.4434626102447510e+00</stageThreshold>
  <weakClassifiers>
    <_>
      <internalNodes>
        0 -1 136913 -1.1945266276597977e-02</internalNodes>
      <leafValues>
        4.2402827739715576e-01 -6.5906840562820435e-01</leafValues></_>
    <_>
      <internalNodes>
        0 -1 929731 -7.0102384779602289e-04</internalNodes>
      <leafValues>
        -6.7756396532058716e-01 4.2638406157493591e-01</leafValues></_>
    <_>
      <internalNodes>
        0 -1 995446 -2.1869796328246593e-03</internalNodes>
      <leafValues>
        3.2691973447799683e-01 -8.1587135791778564e-01</leafValues></_>
    <_>
      <internalNodes>
        0 -1 300779 -8.8060891721397638e-04</internalNodes>
      <leafValues>
        4.4652724266052246e-01 -5.9686243534088135e-01</leafValues></_>
    <_>
      <internalNodes>
        0 -1 751157 -4.7065217047929764e-02</internalNodes>
      <leafValues>
        4.0741774439811707e-01 -7.1201914548873901e-01</leafValues></_>
    <_>
      <internalNodes>
        0 -1 433137 2.3127514868974686e-02</internalNodes>
      <leafValues>
        -5.6089103221893311e-01 5.4593431949615479e-01</leafValues></_>
    <_>
      <internalNodes>
        0 -1 68861 -2.7431964408606291e-03</internalNodes>
      <leafValues>
        3.9740350842475891e-01 -7.3054510354995728e-01</leafValues></_></weakClassifiers></stage9>
</opencv_storage>
