<?xml version="1.0"?>
<opencv_storage>
<cascade>
  <stageType>BOOST</stageType>
  <featureType>HAAR</featureType>
  <height>74</height>
  <width>43</width>
  <stageParams>
    <boostType>GAB</boostType>
    <minHitRate>9.9500000476837158e-01</minHitRate>
    <maxFalseAlarm>5.0000000000000000e-01</maxFalseAlarm>
    <weightTrimRate>9.4999999999999996e-01</weightTrimRate>
    <maxDepth>1</maxDepth>
    <maxWeakCount>100</maxWeakCount></stageParams>
  <featureParams>
    <maxCatCount>0</maxCatCount>
    <featSize>1</featSize>
    <mode>ALL</mode></featureParams>
  <stageNum>20</stageNum>
  <stages>
    <!-- stage 0 -->
    <_>
      <maxWeakCount>4</maxWeakCount>
      <stageThreshold>-1.0842067003250122e+00</stageThreshold>
      <weakClassifiers>
        <_>
          <internalNodes>
            0 -1 53 -1.3906765729188919e-02</internalNodes>
          <leafValues>
            7.9856801033020020e-01 -7.4364638328552246e-01</leafValues></_>
        <_>
          <internalNodes>
            0 -1 116 -6.2657818198204041e-03</internalNodes>
          <leafValues>
            7.6289176940917969e-01 -6.0641956329345703e-01</leafValues></_>
        <_>
          <internalNodes>
            0 -1 220 -6.2440694309771061e-03</internalNodes>
          <leafValues>
            7.3649841547012329e-01 -4.8619246482849121e-01</leafValues></_>
        <_>
          <internalNodes>
            0 -1 94 -1.7678026109933853e-02</internalNodes>
          <leafValues>
            7.5205177068710327e-01 -3.4312945604324341e-01</leafValues></_></weakClassifiers></_>
    <!-- stage 1 -->
    <_>
      <maxWeakCount>5</maxWeakCount>
      <stageThreshold>-7.5583356618881226e-01</stageThreshold>
      <weakClassifiers>
        <_>
          <internalNodes>
            0 -1 34 -4.0849842131137848e-02</internalNodes>
          <leafValues>
            7.9364305734634399e-01 -6.5235602855682373e-01</leafValues></_>
        <_>
          <internalNodes>
            0 -1 162 -3.6525562405586243e-02</internalNodes>
          <leafValues>
            5.9896034002304077e-01 -6.8533450365066528e-01</leafValues></_>
        <_>
          <internalNodes>
            0 -1 236 7.0283049717545509e-03</internalNodes>
          <leafValues>
            -5.3843647241592407e-01 6.3517993688583374e-01</leafValues></_>
        <_>
          <internalNodes>
            0 -1 117 1.4495210489258170e-03</internalNodes>
          <leafValues>
            -4.3467384576797485e-01 6.8884062767028809e-01</leafValues></_>
        <_>
          <internalNodes>
            0 -1 82 4.0970696136355400e-03</internalNodes>
          <leafValues>
            -5.7985019683837891e-01 4.3145278096199036e-01</leafValues></_></weakClassifiers></_>
    <!-- stage 2 -->
    <_>
      <maxWeakCount>8</maxWeakCount>
      <stageThreshold>-9.4778543710708618e-01</stageThreshold>
      <weakClassifiers>
        <_>
          <internalNodes>
            0 -1 31 -1.1541707813739777e-01</internalNodes>
          <leafValues>
            8.0335456132888794e-01 -3.0605822801589966e-01</leafValues></_>
        <_>
          <internalNodes>
            0 -1 93 3.9779776707291603e-03</internalNodes>
          <leafValues>
            -4.8739689588546753e-01 5.4490077495574951e-01</leafValues></_>
        <_>
          <internalNodes>
            0 -1 188 -1.3528421521186829e-02</internalNodes>
          <leafValues>
            5.4041796922683716e-01 -4.6858587861061096e-01</leafValues></_>
        <_>
          <internalNodes>
            0 -1 110 -6.8758176639676094e-03</internalNodes>
          <leafValues>
            6.0245203971862793e-01 -3.9012268185615540e-01</leafValues></_>
        <_>
          <internalNodes>
            0 -1 54 -7.3598530143499374e-03</internalNodes>
          <leafValues>
            2.6916092634201050e-01 -7.4979692697525024e-01</leafValues></_>
        <_>
          <internalNodes>
            0 -1 12 -2.2795377299189568e-03</internalNodes>
          <leafValues>
            6.6204202175140381e-01 -2.9398456215858459e-01</leafValues></_>
        <_>
          <internalNodes>
            0 -1 199 -1.5544683672487736e-02</internalNodes>
          <leafValues>
            5.1608520746231079e-01 -3.3218887448310852e-01</leafValues></_>
        <_>
          <internalNodes>
            0 -1 249 2.2664213553071022e-02</internalNodes>
          <leafValues>
            2.1311672031879425e-01 -8.4081637859344482e-01</leafValues></_></weakClassifiers></_>
    <!-- stage 3 -->
    <_>
      <maxWeakCount>8</maxWeakCount>
      <stageThreshold>-1.4623820781707764e+00</stageThreshold>
      <weakClassifiers>
        <_>
          <internalNodes>
            0 -1 268 7.8071048483252525e-03</internalNodes>
          <leafValues>
            -3.3774834871292114e-01 6.9840455055236816e-01</leafValues></_>
        <_>
          <internalNodes>
            0 -1 187 -3.7720035761594772e-03</internalNodes>
          <leafValues>
            5.2386552095413208e-01 -5.1732188463211060e-01</leafValues></_>
        <_>
          <internalNodes>
            0 -1 40 -4.4573895633220673e-02</internalNodes>
          <leafValues>
            7.2330391407012939e-01 -3.1872811913490295e-01</leafValues></_>
        <_>
          <internalNodes>
            0 -1 39 -7.7417204156517982e-03</internalNodes>
          <leafValues>
            3.2988360524177551e-01 -6.1527955532073975e-01</leafValues></_>
        <_>
          <internalNodes>
            0 -1 285 5.3187455050647259e-03</internalNodes>
          <leafValues>
            -3.0755144357681274e-01 6.1935997009277344e-01</leafValues></_>
        <_>
          <internalNodes>
            0 -1 150 -3.2092796172946692e-03</internalNodes>
          <leafValues>
            5.1590979099273682e-01 -3.3389228582382202e-01</leafValues></_>
        <_>
          <internalNodes>
            0 -1 80 -4.4543305411934853e-03</internalNodes>
          <leafValues>
            5.2037131786346436e-01 -3.0570983886718750e-01</leafValues></_>
        <_>
          <internalNodes>
            0 -1 189 5.7412330061197281e-03</internalNodes>
          <leafValues>
            -7.6654022932052612e-01 2.3266202211380005e-01</leafValues></_></weakClassifiers></_>
    <!-- stage 4 -->
    <_>
      <maxWeakCount>11</maxWeakCount>
      <stageThreshold>-1.1928557157516479e+00</stageThreshold>
      <weakClassifiers>
        <_>
          <internalNodes>
            0 -1 154 2.8555686585605145e-03</internalNodes>
          <leafValues>
            -3.8115632534027100e-01 6.5634077787399292e-01</leafValues></_>
        <_>
          <internalNodes>
            0 -1 198 -1.2717368081212044e-02</internalNodes>
          <leafValues>
            5.7225954532623291e-01 -3.4980145096778870e-01</leafValues></_>
        <_>
          <internalNodes>
            0 -1 141 1.8380405381321907e-03</internalNodes>
          <leafValues>
            -3.9248549938201904e-01 4.7729486227035522e-01</leafValues></_>
        <_>
          <internalNodes>
            0 -1 258 8.1912865862250328e-03</internalNodes>
          <leafValues>
            -3.6795648932456970e-01 4.6307110786437988e-01</leafValues></_>
        <_>
          <internalNodes>
            0 -1 43 -6.8904240615665913e-03</internalNodes>
          <leafValues>
            2.7318185567855835e-01 -6.2865078449249268e-01</leafValues></_>
        <_>
          <internalNodes>
            0 -1 108 -1.0531924664974213e-02</internalNodes>
          <leafValues>
            4.9448260664939880e-01 -3.3911013603210449e-01</leafValues></_>
        <_>
          <internalNodes>
            0 -1 72 -1.3572549447417259e-02</internalNodes>
          <leafValues>
            4.6443280577659607e-01 -3.1058266758918762e-01</leafValues></_>
        <_>
          <internalNodes>
            0 -1 176 1.6261134296655655e-03</internalNodes>
          <leafValues>
            -7.8008311986923218e-01 2.0598937571048737e-01</leafValues></_>
        <_>
          <internalNodes>
            0 -1 36 -1.8529918044805527e-02</internalNodes>
          <leafValues>
            4.6683242917060852e-01 -3.1096139550209045e-01</leafValues></_>
        <_>
          <internalNodes>
            0 -1 286 -2.1197004243731499e-03</internalNodes>
          <leafValues>
            5.0078547000885010e-01 -2.5119125843048096e-01</leafValues></_>
        <_>
          <internalNodes>
            0 -1 125 -9.0459259808994830e-05</internalNodes>
          <leafValues>
            -8.9352083206176758e-01 1.6143788397312164e-01</leafValues></_></weakClassifiers></_>
    <!-- stage 5 -->
    <_>
      <maxWeakCount>12</maxWeakCount>
      <stageThreshold>-1.1656129360198975e+00</stageThreshold>
      <weakClassifiers>
        <_>
          <internalNodes>
            0 -1 136 -3.6393331829458475e-03</internalNodes>
          <leafValues>
            6.1639964580535889e-01 -3.5079726576805115e-01</leafValues></_>
        <_>
          <internalNodes>
            0 -1 234 1.3638533651828766e-02</internalNodes>
          <leafValues>
            -3.0505919456481934e-01 5.9743839502334595e-01</leafValues></_>
        <_>
          <internalNodes>
            0 -1 107 2.3776676971465349e-03</internalNodes>
          <leafValues>
            -3.1080588698387146e-01 5.9462440013885498e-01</leafValues></_>
        <_>
          <internalNodes>
            0 -1 7 -2.2708880715072155e-03</internalNodes>
          <leafValues>
            5.9337651729583740e-01 -2.3561123013496399e-01</leafValues></_>
        <_>
          <internalNodes>
            0 -1 307 -3.9905905723571777e-03</internalNodes>
          <leafValues>
            2.0132170617580414e-01 -6.8709045648574829e-01</leafValues></_>
        <_>
          <internalNodes>
            0 -1 64 2.2017268929630518e-03</internalNodes>
          <leafValues>
            -2.9480960965156555e-01 4.6674737334251404e-01</leafValues></_>
        <_>
          <internalNodes>
            0 -1 237 -9.9347103387117386e-03</internalNodes>
          <leafValues>
            5.2582901716232300e-01 -2.8312903642654419e-01</leafValues></_>
        <_>
          <internalNodes>
            0 -1 294 -2.0062453113496304e-03</internalNodes>
          <leafValues>
            5.7361096143722534e-01 -2.4640884995460510e-01</leafValues></_>
        <_>
          <internalNodes>
            0 -1 122 -6.0668139485642314e-04</internalNodes>
          <leafValues>
            4.6237647533416748e-01 -3.0558580160140991e-01</leafValues></_>
        <_>
          <internalNodes>
            0 -1 183 3.8750273233745247e-05</internalNodes>
          <leafValues>
            2.5729125738143921e-01 -5.0337594747543335e-01</leafValues></_>
        <_>
          <internalNodes>
            0 -1 221 -3.0168271623551846e-03</internalNodes>
          <leafValues>
            2.9422113299369812e-01 -4.2780274152755737e-01</leafValues></_>
        <_>
          <internalNodes>
            0 -1 229 3.4353444789303467e-05</internalNodes>
          <leafValues>
            2.7192938327789307e-01 -4.6760269999504089e-01</leafValues></_></weakClassifiers></_>
    <!-- stage 6 -->
    <_>
      <maxWeakCount>13</maxWeakCount>
      <stageThreshold>-7.7541935443878174e-01</stageThreshold>
      <weakClassifiers>
        <_>
          <internalNodes>
            0 -1 196 1.9111833535134792e-03</internalNodes>
          <leafValues>
            -1.7204301059246063e-01 6.3269639015197754e-01</leafValues></_>
        <_>
          <internalNodes>
            0 -1 214 -1.7920665442943573e-02</internalNodes>
          <leafValues>
            6.4539945125579834e-01 -2.2704651951789856e-01</leafValues></_>
        <_>
          <internalNodes>
            0 -1 29 -4.4488754123449326e-02</internalNodes>
          <leafValues>
            5.7922238111495972e-01 -2.6888903975486755e-01</leafValues></_>
        <_>
          <internalNodes>
            0 -1 145 -1.4662114903330803e-02</internalNodes>
          <leafValues>
            1.6412945091724396e-01 -7.6313120126724243e-01</leafValues></_>
        <_>
          <internalNodes>
            0 -1 118 6.6870450973510742e-04</internalNodes>
          <leafValues>
            -2.7453449368476868e-01 5.6527256965637207e-01</leafValues></_>
        <_>
          <internalNodes>
            0 -1 48 4.2922925204038620e-03</internalNodes>
          <leafValues>
            -2.3422527313232422e-01 5.6422549486160278e-01</leafValues></_>
        <_>
          <internalNodes>
            0 -1 5 -3.1241162214428186e-03</internalNodes>
          <leafValues>
            6.7763954401016235e-01 -1.8456761538982391e-01</leafValues></_>
        <_>
          <internalNodes>
            0 -1 131 -4.3220627121627331e-03</internalNodes>
          <leafValues>
            5.1991915702819824e-01 -2.4334870278835297e-01</leafValues></_>
        <_>
          <internalNodes>
            0 -1 15 7.0830686017870903e-03</internalNodes>
          <leafValues>
            -1.9409202039241791e-01 6.6336721181869507e-01</leafValues></_>
        <_>
          <internalNodes>
            0 -1 157 6.6879522055387497e-03</internalNodes>
          <leafValues>
            -6.1589294672012329e-01 2.2805051505565643e-01</leafValues></_>
        <_>
          <internalNodes>
            0 -1 296 -5.1786899566650391e-03</internalNodes>
          <leafValues>
            3.4450966119766235e-01 -3.3141186833381653e-01</leafValues></_>
        <_>
          <internalNodes>
            0 -1 293 -1.9075346644967794e-03</internalNodes>
          <leafValues>
            5.1696318387985229e-01 -2.1832586824893951e-01</leafValues></_>
        <_>
          <internalNodes>
            0 -1 277 -2.7942387387156487e-03</internalNodes>
          <leafValues>
            5.4164081811904907e-01 -2.1910026669502258e-01</leafValues></_></weakClassifiers></_>
    <!-- stage 7 -->
    <_>
      <maxWeakCount>14</maxWeakCount>
      <stageThreshold>-1.2540944814682007e+00</stageThreshold>
      <weakClassifiers>
        <_>
          <internalNodes>
            0 -1 139 1.9064955413341522e-03</internalNodes>
          <leafValues>
            -2.4575310945510864e-01 5.7487010955810547e-01</leafValues></_>
        <_>
          <internalNodes>
            0 -1 146 -2.8480684384703636e-02</internalNodes>
          <leafValues>
            5.3028452396392822e-01 -2.7743989229202271e-01</leafValues></_>
        <_>
          <internalNodes>
            0 -1 264 -1.8370393663644791e-03</internalNodes>
          <leafValues>
            3.6458837985992432e-01 -3.8917219638824463e-01</leafValues></_>
        <_>
          <internalNodes>
            0 -1 62 2.0863148383796215e-03</internalNodes>
          <leafValues>
            -3.9977842569351196e-01 3.1399998068809509e-01</leafValues></_>
        <_>
          <internalNodes>
            0 -1 163 -2.0697940140962601e-02</internalNodes>
          <leafValues>
            1.9788670539855957e-01 -5.1070606708526611e-01</leafValues></_>
        <_>
          <internalNodes>
            0 -1 126 -1.5763267874717712e-03</internalNodes>
          <leafValues>
            4.0870895981788635e-01 -2.7678164839744568e-01</leafValues></_>
        <_>
          <internalNodes>
            0 -1 171 3.3031028578989208e-05</internalNodes>
          <leafValues>
            2.2861771285533905e-01 -4.8399400711059570e-01</leafValues></_>
        <_>
          <internalNodes>
            0 -1 153 -2.8995345346629620e-03</internalNodes>
          <leafValues>
            -7.0255059003829956e-01 1.4822287857532501e-01</leafValues></_>
        <_>
          <internalNodes>
            0 -1 89 1.3211159966886044e-02</internalNodes>
          <leafValues>
            -2.3093806207180023e-01 5.6144911050796509e-01</leafValues></_>
        <_>
          <internalNodes>
            0 -1 244 -7.9532497329637408e-04</internalNodes>
          <leafValues>
            2.3633374273777008e-01 -6.0544514656066895e-01</leafValues></_>
        <_>
          <internalNodes>
            0 -1 6 -9.0921893715858459e-03</internalNodes>
          <leafValues>
            5.5606746673583984e-01 -2.1390394866466522e-01</leafValues></_>
        <_>
          <internalNodes>
            0 -1 30 -9.9370274692773819e-03</internalNodes>
          <leafValues>
            5.5315816402435303e-01 -1.7087273299694061e-01</leafValues></_>
        <_>
          <internalNodes>
            0 -1 239 -9.3555671628564596e-04</internalNodes>
          <leafValues>
            3.0330863595008850e-01 -3.4985116124153137e-01</leafValues></_>
        <_>
          <internalNodes>
            0 -1 200 -4.8444345593452454e-03</internalNodes>
          <leafValues>
            3.3729407191276550e-01 -3.1848955154418945e-01</leafValues></_></weakClassifiers></_>
    <!-- stage 8 -->
    <_>
      <maxWeakCount>15</maxWeakCount>
      <stageThreshold>-8.9084213972091675e-01</stageThreshold>
      <weakClassifiers>
        <_>
          <internalNodes>
            0 -1 138 -9.6893760201055557e-05</internalNodes>
          <leafValues>
            -3.5714286565780640e-01 5.2207130193710327e-01</leafValues></_>
        <_>
          <internalNodes>
            0 -1 149 -2.0353794097900391e-02</internalNodes>
          <leafValues>
            4.7756195068359375e-01 -2.9461365938186646e-01</leafValues></_>
        <_>
          <internalNodes>
            0 -1 305 3.9971852675080299e-04</internalNodes>
          <leafValues>
            2.2211892902851105e-01 -6.5710079669952393e-01</leafValues></_>
        <_>
          <internalNodes>
            0 -1 210 -8.2088754425058141e-06</internalNodes>
          <leafValues>
            -5.4306763410568237e-01 2.2764974832534790e-01</leafValues></_>
        <_>
          <internalNodes>
            0 -1 292 7.5597204267978668e-03</internalNodes>
          <leafValues>
            -2.4951264262199402e-01 4.9460211396217346e-01</leafValues></_>
        <_>
          <internalNodes>
            0 -1 97 -1.2614307925105095e-02</internalNodes>
          <leafValues>
            3.7957945466041565e-01 -3.2073125243186951e-01</leafValues></_>
        <_>
          <internalNodes>
            0 -1 66 -1.4096558094024658e-02</internalNodes>
          <leafValues>
            1.8170841038227081e-01 -6.1526048183441162e-01</leafValues></_>
        <_>
          <internalNodes>
            0 -1 208 -1.8955877050757408e-02</internalNodes>
          <leafValues>
            3.6701726913452148e-01 -2.9326015710830688e-01</leafValues></_>
        <_>
          <internalNodes>
            0 -1 61 3.0429977923631668e-03</internalNodes>
          <leafValues>
            1.5577855706214905e-01 -6.8316739797592163e-01</leafValues></_>
        <_>
          <internalNodes>
            0 -1 151 7.0139554736670107e-05</internalNodes>
          <leafValues>
            1.5266090631484985e-01 -5.9994554519653320e-01</leafValues></_>
        <_>
          <internalNodes>
            0 -1 195 -4.7386670485138893e-03</internalNodes>
          <leafValues>
            -8.1598240137100220e-01 9.8007857799530029e-02</leafValues></_>
        <_>
          <internalNodes>
            0 -1 128 -1.9629225134849548e-03</internalNodes>
          <leafValues>
            3.0664718151092529e-01 -3.3668994903564453e-01</leafValues></_>
        <_>
          <internalNodes>
            0 -1 10 -3.6385452840477228e-03</internalNodes>
          <leafValues>
            4.8033690452575684e-01 -2.1254321932792664e-01</leafValues></_>
        <_>
          <internalNodes>
            0 -1 276 -1.2997533194720745e-03</internalNodes>
          <leafValues>
            4.6437314152717590e-01 -1.9004558026790619e-01</leafValues></_>
        <_>
          <internalNodes>
            0 -1 51 -1.1734500527381897e-02</internalNodes>
          <leafValues>
            5.8174651861190796e-01 -1.7234836518764496e-01</leafValues></_></weakClassifiers></_>
    <!-- stage 9 -->
    <_>
      <maxWeakCount>17</maxWeakCount>
      <stageThreshold>-1.1468381881713867e+00</stageThreshold>
      <weakClassifiers>
        <_>
          <internalNodes>
            0 -1 142 2.5119018391706049e-04</internalNodes>
          <leafValues>
            -7.9136691987514496e-02 6.2835907936096191e-01</leafValues></_>
        <_>
          <internalNodes>
            0 -1 201 -1.3035019946983084e-05</internalNodes>
          <leafValues>
            -5.4295521974563599e-01 2.4400129914283752e-01</leafValues></_>
        <_>
          <internalNodes>
            0 -1 204 -1.7950283363461494e-03</internalNodes>
          <leafValues>
            2.7400970458984375e-01 -4.0666365623474121e-01</leafValues></_>
        <_>
          <internalNodes>
            0 -1 119 3.8447417318820953e-02</internalNodes>
          <leafValues>
            -2.6772189140319824e-01 4.2822730541229248e-01</leafValues></_>
        <_>
          <internalNodes>
            0 -1 224 1.7724270001053810e-02</internalNodes>
          <leafValues>
            -4.9319803714752197e-01 2.3201790452003479e-01</leafValues></_>
        <_>
          <internalNodes>
            0 -1 168 9.3127451837062836e-03</internalNodes>
          <leafValues>
            -3.4796771407127380e-01 2.8578129410743713e-01</leafValues></_>
        <_>
          <internalNodes>
            0 -1 33 -1.1389277875423431e-02</internalNodes>
          <leafValues>
            3.0032843351364136e-01 -3.2270139455795288e-01</leafValues></_>
        <_>
          <internalNodes>
            0 -1 287 -3.7647928111255169e-03</internalNodes>
          <leafValues>
            -6.9666123390197754e-01 1.4319154620170593e-01</leafValues></_>
        <_>
          <internalNodes>
            0 -1 231 -5.0552620086818933e-04</internalNodes>
          <leafValues>
            2.8804352879524231e-01 -3.2573622465133667e-01</leafValues></_>
        <_>
          <internalNodes>
            0 -1 86 -2.2857952862977982e-03</internalNodes>
          <leafValues>
            2.6923865079879761e-01 -3.2804796099662781e-01</leafValues></_>
        <_>
          <internalNodes>
            0 -1 152 -5.8822744904318824e-05</internalNodes>
          <leafValues>
            -6.3355278968811035e-01 1.3966909050941467e-01</leafValues></_>
        <_>
          <internalNodes>
            0 -1 301 5.5484334006905556e-04</internalNodes>
          <leafValues>
            -1.9394204020500183e-01 5.2511852979660034e-01</leafValues></_>
        <_>
          <internalNodes>
            0 -1 223 8.3736304077319801e-06</internalNodes>
          <leafValues>
            2.1983584761619568e-01 -4.2876344919204712e-01</leafValues></_>
        <_>
          <internalNodes>
            0 -1 300 -1.6455949516966939e-03</internalNodes>
          <leafValues>
            5.6204062700271606e-01 -1.6595558822154999e-01</leafValues></_>
        <_>
          <internalNodes>
            0 -1 129 -1.2814528308808804e-03</internalNodes>
          <leafValues>
            -7.4147856235504150e-01 1.3246978819370270e-01</leafValues></_>
        <_>
          <internalNodes>
            0 -1 22 -4.1771084070205688e-03</internalNodes>
          <leafValues>
            5.2572453022003174e-01 -1.8909700214862823e-01</leafValues></_>
        <_>
          <internalNodes>
            0 -1 24 1.2605831027030945e-02</internalNodes>
          <leafValues>
            -1.8871252238750458e-01 5.5973201990127563e-01</leafValues></_></weakClassifiers></_>
    <!-- stage 10 -->
    <_>
      <maxWeakCount>18</maxWeakCount>
      <stageThreshold>-8.7975531816482544e-01</stageThreshold>
      <weakClassifiers>
        <_>
          <internalNodes>
            0 -1 211 -4.0340231498703361e-04</internalNodes>
          <leafValues>
            5.6065571308135986e-01 -2.2774566709995270e-01</leafValues></_>
        <_>
          <internalNodes>
            0 -1 209 8.1574535215622745e-06</internalNodes>
          <leafValues>
            2.5636744499206543e-01 -4.6871140599250793e-01</leafValues></_>
        <_>
          <internalNodes>
            0 -1 105 -2.8044581413269043e-03</internalNodes>
          <leafValues>
            3.3045947551727295e-01 -3.1040924787521362e-01</leafValues></_>
        <_>
          <internalNodes>
            0 -1 228 4.7699515707790852e-03</internalNodes>
          <leafValues>
            -4.0110242366790771e-01 2.5103682279586792e-01</leafValues></_>
        <_>
          <internalNodes>
            0 -1 103 8.5364896222017705e-05</internalNodes>
          <leafValues>
            1.4760921895503998e-01 -6.6556787490844727e-01</leafValues></_>
        <_>
          <internalNodes>
            0 -1 63 -2.1225656382739544e-03</internalNodes>
          <leafValues>
            3.9806914329528809e-01 -2.5075820088386536e-01</leafValues></_>
        <_>
          <internalNodes>
            0 -1 102 -1.4546554302796721e-04</internalNodes>
          <leafValues>
            -6.4443439245223999e-01 1.3498915731906891e-01</leafValues></_>
        <_>
          <internalNodes>
            0 -1 147 -8.6621043737977743e-04</internalNodes>
          <leafValues>
            3.4278097748756409e-01 -2.8485441207885742e-01</leafValues></_>
        <_>
          <internalNodes>
            0 -1 279 -2.3266911739483476e-04</internalNodes>
          <leafValues>
            2.1184261143207550e-01 -4.3505528569221497e-01</leafValues></_>
        <_>
          <internalNodes>
            0 -1 263 1.1048090527765453e-04</internalNodes>
          <leafValues>
            1.2627261877059937e-01 -6.4611983299255371e-01</leafValues></_>
        <_>
          <internalNodes>
            0 -1 73 -6.2265095766633749e-04</internalNodes>
          <leafValues>
            4.5636299252510071e-01 -2.2373630106449127e-01</leafValues></_>
        <_>
          <internalNodes>
            0 -1 284 -3.6480305716395378e-03</internalNodes>
          <leafValues>
            5.1484531164169312e-01 -1.9043546915054321e-01</leafValues></_>
        <_>
          <internalNodes>
            0 -1 203 7.2053871917887591e-06</internalNodes>
          <leafValues>
            2.3345656692981720e-01 -4.3127247691154480e-01</leafValues></_>
        <_>
          <internalNodes>
            0 -1 42 -2.2805541753768921e-02</internalNodes>
          <leafValues>
            3.6992147564888000e-01 -2.5104629993438721e-01</leafValues></_>
        <_>
          <internalNodes>
            0 -1 56 -2.3996955715119839e-03</internalNodes>
          <leafValues>
            4.7923728823661804e-01 -1.9803701341152191e-01</leafValues></_>
        <_>
          <internalNodes>
            0 -1 164 -1.0648455645423383e-04</internalNodes>
          <leafValues>
            -6.2609046697616577e-01 1.5161539614200592e-01</leafValues></_>
        <_>
          <internalNodes>
            0 -1 309 -6.9066556170582771e-04</internalNodes>
          <leafValues>
            5.7563060522079468e-01 -1.7669913172721863e-01</leafValues></_>
        <_>
          <internalNodes>
            0 -1 311 -9.0086576528847218e-04</internalNodes>
          <leafValues>
            5.3473353385925293e-01 -1.8161685764789581e-01</leafValues></_></weakClassifiers></_>
    <!-- stage 11 -->
    <_>
      <maxWeakCount>19</maxWeakCount>
      <stageThreshold>-1.1506688594818115e+00</stageThreshold>
      <weakClassifiers>
        <_>
          <internalNodes>
            0 -1 67 2.4440009146928787e-03</internalNodes>
          <leafValues>
            -1.0803323984146118e-01 5.8268129825592041e-01</leafValues></_>
        <_>
          <internalNodes>
            0 -1 111 -2.8276659548282623e-02</internalNodes>
          <leafValues>
            5.4936176538467407e-01 -1.8533243238925934e-01</leafValues></_>
        <_>
          <internalNodes>
            0 -1 186 1.9995638285763562e-04</internalNodes>
          <leafValues>
            -5.9161388874053955e-01 1.9399128854274750e-01</leafValues></_>
        <_>
          <internalNodes>
            0 -1 148 -2.8954748064279556e-02</internalNodes>
          <leafValues>
            1.9855681061744690e-01 -4.6219646930694580e-01</leafValues></_>
        <_>
          <internalNodes>
            0 -1 170 -1.2041308218613267e-03</internalNodes>
          <leafValues>
            3.0625927448272705e-01 -3.0176785588264465e-01</leafValues></_>
        <_>
          <internalNodes>
            0 -1 0 -3.9964183233678341e-03</internalNodes>
          <leafValues>
            6.0388827323913574e-01 -1.7434956133365631e-01</leafValues></_>
        <_>
          <internalNodes>
            0 -1 232 -1.7358751501888037e-03</internalNodes>
          <leafValues>
            -5.8114242553710938e-01 1.7555084824562073e-01</leafValues></_>
        <_>
          <internalNodes>
            0 -1 96 4.1678026318550110e-03</internalNodes>
          <leafValues>
            -2.3080945014953613e-01 4.2223790287971497e-01</leafValues></_>
        <_>
          <internalNodes>
            0 -1 192 5.2834516391158104e-03</internalNodes>
          <leafValues>
            -6.5450417995452881e-01 1.4347001910209656e-01</leafValues></_>
        <_>
          <internalNodes>
            0 -1 101 3.1648123695049435e-05</internalNodes>
          <leafValues>
            1.5418761968612671e-01 -5.5446922779083252e-01</leafValues></_>
        <_>
          <internalNodes>
            0 -1 32 -1.3540633954107761e-03</internalNodes>
          <leafValues>
            5.1749032735824585e-01 -1.8404161930084229e-01</leafValues></_>
        <_>
          <internalNodes>
            0 -1 290 1.2064935639500618e-02</internalNodes>
          <leafValues>
            1.7587579786777496e-01 -6.2834322452545166e-01</leafValues></_>
        <_>
          <internalNodes>
            0 -1 265 -2.7039600536227226e-03</internalNodes>
          <leafValues>
            2.6411151885986328e-01 -3.2990995049476624e-01</leafValues></_>
        <_>
          <internalNodes>
            0 -1 11 1.5939639881253242e-02</internalNodes>
          <leafValues>
            -1.5146987140178680e-01 5.7310730218887329e-01</leafValues></_>
        <_>
          <internalNodes>
            0 -1 242 -3.7020273506641388e-02</internalNodes>
          <leafValues>
            5.6393057107925415e-01 -1.4470088481903076e-01</leafValues></_>
        <_>
          <internalNodes>
            0 -1 308 4.8042158596217632e-04</internalNodes>
          <leafValues>
            -1.5902777016162872e-01 5.6414872407913208e-01</leafValues></_>
        <_>
          <internalNodes>
            0 -1 41 -7.7721392735838890e-03</internalNodes>
          <leafValues>
            4.6156176924705505e-01 -1.9308441877365112e-01</leafValues></_>
        <_>
          <internalNodes>
            0 -1 85 -2.3656913544982672e-03</internalNodes>
          <leafValues>
            4.7504273056983948e-01 -1.8086813390254974e-01</leafValues></_>
        <_>
          <internalNodes>
            0 -1 310 -1.5474231913685799e-03</internalNodes>
          <leafValues>
            -6.7527675628662109e-01 1.5109395980834961e-01</leafValues></_></weakClassifiers></_>
    <!-- stage 12 -->
    <_>
      <maxWeakCount>20</maxWeakCount>
      <stageThreshold>-9.8853248357772827e-01</stageThreshold>
      <weakClassifiers>
        <_>
          <internalNodes>
            0 -1 160 5.9234950458630919e-04</internalNodes>
          <leafValues>
            -3.8067060708999634e-01 4.7853991389274597e-01</leafValues></_>
        <_>
          <internalNodes>
            0 -1 3 -3.4273245930671692e-01</internalNodes>
          <leafValues>
            5.4603928327560425e-01 -1.7919822037220001e-01</leafValues></_>
        <_>
          <internalNodes>
            0 -1 121 -1.5455968677997589e-02</internalNodes>
          <leafValues>
            3.8665574789047241e-01 -2.4764820933341980e-01</leafValues></_>
        <_>
          <internalNodes>
            0 -1 124 -5.4388299584388733e-02</internalNodes>
          <leafValues>
            2.7400422096252441e-01 -3.6845335364341736e-01</leafValues></_>
        <_>
          <internalNodes>
            0 -1 182 2.4028820917010307e-03</internalNodes>
          <leafValues>
            1.8134699761867523e-01 -6.1020219326019287e-01</leafValues></_>
        <_>
          <internalNodes>
            0 -1 314 -1.6293706721626222e-04</internalNodes>
          <leafValues>
            1.3688582181930542e-01 -5.2234762907028198e-01</leafValues></_>
        <_>
          <internalNodes>
            0 -1 273 7.5722724432125688e-05</internalNodes>
          <leafValues>
            1.9804020226001740e-01 -4.8362469673156738e-01</leafValues></_>
        <_>
          <internalNodes>
            0 -1 177 -6.7418278194963932e-04</internalNodes>
          <leafValues>
            2.0800465345382690e-01 -3.9455723762512207e-01</leafValues></_>
        <_>
          <internalNodes>
            0 -1 197 -6.9410209544003010e-03</internalNodes>
          <leafValues>
            -8.1498837471008301e-01 1.1323549598455429e-01</leafValues></_>
        <_>
          <internalNodes>
            0 -1 4 -1.0969997383654118e-03</internalNodes>
          <leafValues>
            3.8773596286773682e-01 -2.3693031072616577e-01</leafValues></_>
        <_>
          <internalNodes>
            0 -1 59 6.2596388161182404e-03</internalNodes>
          <leafValues>
            -1.9994074106216431e-01 4.1553419828414917e-01</leafValues></_>
        <_>
          <internalNodes>
            0 -1 114 -1.7236145504284650e-04</internalNodes>
          <leafValues>
            -5.8022576570510864e-01 1.3600961863994598e-01</leafValues></_>
        <_>
          <internalNodes>
            0 -1 70 -1.8692167475819588e-02</internalNodes>
          <leafValues>
            4.4257375597953796e-01 -1.7017176747322083e-01</leafValues></_>
        <_>
          <internalNodes>
            0 -1 169 -1.3538833009079099e-03</internalNodes>
          <leafValues>
            2.2091808915138245e-01 -3.6004471778869629e-01</leafValues></_>
        <_>
          <internalNodes>
            0 -1 99 -1.1094253510236740e-02</internalNodes>
          <leafValues>
            4.8497197031974792e-01 -1.7297783493995667e-01</leafValues></_>
        <_>
          <internalNodes>
            0 -1 106 -1.0259848786517978e-03</internalNodes>
          <leafValues>
            3.1521597504615784e-01 -2.3529246449470520e-01</leafValues></_>
        <_>
          <internalNodes>
            0 -1 269 -7.2467103600502014e-03</internalNodes>
          <leafValues>
            4.5066380500793457e-01 -1.8334732949733734e-01</leafValues></_>
        <_>
          <internalNodes>
            0 -1 241 -3.5840709460899234e-04</internalNodes>
          <leafValues>
            -5.3075665235519409e-01 1.4323392510414124e-01</leafValues></_>
        <_>
          <internalNodes>
            0 -1 266 -1.6641529509797692e-04</internalNodes>
          <leafValues>
            -6.5418332815170288e-01 1.1295288801193237e-01</leafValues></_>
        <_>
          <internalNodes>
            0 -1 65 -4.1751924436539412e-04</internalNodes>
          <leafValues>
            5.2016633749008179e-01 -1.6774040460586548e-01</leafValues></_></weakClassifiers></_>
    <!-- stage 13 -->
    <_>
      <maxWeakCount>20</maxWeakCount>
      <stageThreshold>-1.0741525888442993e+00</stageThreshold>
      <weakClassifiers>
        <_>
          <internalNodes>
            0 -1 185 -2.4259304609586252e-06</internalNodes>
          <leafValues>
            -2.1621622145175934e-01 5.1327431201934814e-01</leafValues></_>
        <_>
          <internalNodes>
            0 -1 225 -1.4481006655842066e-04</internalNodes>
          <leafValues>
            2.1535244584083557e-01 -5.2187061309814453e-01</leafValues></_>
        <_>
          <internalNodes>
            0 -1 49 -6.7006279714405537e-03</internalNodes>
          <leafValues>
            3.2666257023811340e-01 -3.1289210915565491e-01</leafValues></_>
        <_>
          <internalNodes>
            0 -1 251 -3.5013100132346153e-03</internalNodes>
          <leafValues>
            4.3186542391777039e-01 -2.4255223572254181e-01</leafValues></_>
        <_>
          <internalNodes>
            0 -1 235 1.0709344409406185e-02</internalNodes>
          <leafValues>
            1.1909101158380508e-01 -7.3066949844360352e-01</leafValues></_>
        <_>
          <internalNodes>
            0 -1 75 -1.5958386939018965e-03</internalNodes>
          <leafValues>
            3.2533442974090576e-01 -2.6571649312973022e-01</leafValues></_>
        <_>
          <internalNodes>
            0 -1 44 -3.2342424988746643e-01</internalNodes>
          <leafValues>
            3.8713628053665161e-01 -2.4041701853275299e-01</leafValues></_>
        <_>
          <internalNodes>
            0 -1 60 5.6946715340018272e-03</internalNodes>
          <leafValues>
            1.3352005183696747e-01 -5.7088422775268555e-01</leafValues></_>
        <_>
          <internalNodes>
            0 -1 298 -5.4697558516636491e-04</internalNodes>
          <leafValues>
            3.8552400469779968e-01 -2.2460231184959412e-01</leafValues></_>
        <_>
          <internalNodes>
            0 -1 134 -5.1840699597960338e-05</internalNodes>
          <leafValues>
            -6.4073693752288818e-01 1.4776819944381714e-01</leafValues></_>
        <_>
          <internalNodes>
            0 -1 98 -1.0880282148718834e-02</internalNodes>
          <leafValues>
            4.4421631097793579e-01 -1.9930137693881989e-01</leafValues></_>
        <_>
          <internalNodes>
            0 -1 161 -5.2885189652442932e-03</internalNodes>
          <leafValues>
            4.2169624567031860e-01 -1.9401885569095612e-01</leafValues></_>
        <_>
          <internalNodes>
            0 -1 165 8.2944184541702271e-03</internalNodes>
          <leafValues>
            -6.4532536268234253e-01 1.3110655546188354e-01</leafValues></_>
        <_>
          <internalNodes>
            0 -1 21 -1.5549380332231522e-03</internalNodes>
          <leafValues>
            5.3976988792419434e-01 -1.6833712160587311e-01</leafValues></_>
        <_>
          <internalNodes>
            0 -1 246 7.2751152329146862e-03</internalNodes>
          <leafValues>
            1.9177281856536865e-01 -4.3889105319976807e-01</leafValues></_>
        <_>
          <internalNodes>
            0 -1 218 -5.4285340011119843e-03</internalNodes>
          <leafValues>
            4.6608904004096985e-01 -1.8138404190540314e-01</leafValues></_>
        <_>
          <internalNodes>
            0 -1 100 -9.8304401035420597e-05</internalNodes>
          <leafValues>
            -7.3968350887298584e-01 1.2309452146291733e-01</leafValues></_>
        <_>
          <internalNodes>
            0 -1 50 -5.1385164260864258e-04</internalNodes>
          <leafValues>
            4.1639122366905212e-01 -1.9635094702243805e-01</leafValues></_>
        <_>
          <internalNodes>
            0 -1 14 9.0919956564903259e-03</internalNodes>
          <leafValues>
            -1.0977933555841446e-01 6.4893549680709839e-01</leafValues></_>
        <_>
          <internalNodes>
            0 -1 17 -1.0911123827099800e-03</internalNodes>
          <leafValues>
            4.8829194903373718e-01 -1.7389580607414246e-01</leafValues></_></weakClassifiers></_>
    <!-- stage 14 -->
    <_>
      <maxWeakCount>21</maxWeakCount>
      <stageThreshold>-8.3433347940444946e-01</stageThreshold>
      <weakClassifiers>
        <_>
          <internalNodes>
            0 -1 155 1.7941839178092778e-04</internalNodes>
          <leafValues>
            -9.9573256447911263e-03 6.3613551855087280e-01</leafValues></_>
        <_>
          <internalNodes>
            0 -1 191 -8.3155382526456378e-06</internalNodes>
          <leafValues>
            -4.2229700088500977e-01 2.5158113241195679e-01</leafValues></_>
        <_>
          <internalNodes>
            0 -1 272 -1.0502417571842670e-03</internalNodes>
          <leafValues>
            4.0783083438873291e-01 -2.4156384170055389e-01</leafValues></_>
        <_>
          <internalNodes>
            0 -1 212 5.7968776673078537e-05</internalNodes>
          <leafValues>
            1.7247743904590607e-01 -5.1044613122940063e-01</leafValues></_>
        <_>
          <internalNodes>
            0 -1 219 -3.4679891541600227e-03</internalNodes>
          <leafValues>
            1.8403136730194092e-01 -4.6745970845222473e-01</leafValues></_>
        <_>
          <internalNodes>
            0 -1 215 -3.9034632209222764e-05</internalNodes>
          <leafValues>
            -5.4947412014007568e-01 1.2081351131200790e-01</leafValues></_>
        <_>
          <internalNodes>
            0 -1 37 -7.8486502170562744e-03</internalNodes>
          <leafValues>
            4.0106397867202759e-01 -2.0925512909889221e-01</leafValues></_>
        <_>
          <internalNodes>
            0 -1 27 -1.4384016394615173e-03</internalNodes>
          <leafValues>
            5.5529004335403442e-01 -1.4771084487438202e-01</leafValues></_>
        <_>
          <internalNodes>
            0 -1 233 -3.9265034720301628e-03</internalNodes>
          <leafValues>
            1.6978974640369415e-01 -4.6030387282371521e-01</leafValues></_>
        <_>
          <internalNodes>
            0 -1 74 -9.8710553720593452e-04</internalNodes>
          <leafValues>
            4.6486359834671021e-01 -1.6693145036697388e-01</leafValues></_>
        <_>
          <internalNodes>
            0 -1 58 -1.7998428083956242e-03</internalNodes>
          <leafValues>
            4.5486399531364441e-01 -1.8248581886291504e-01</leafValues></_>
        <_>
          <internalNodes>
            0 -1 35 -1.2523967307060957e-03</internalNodes>
          <leafValues>
            4.7958111763000488e-01 -1.5321809053421021e-01</leafValues></_>
        <_>
          <internalNodes>
            0 -1 28 2.0666671916842461e-03</internalNodes>
          <leafValues>
            -1.4026416838169098e-01 5.1307421922683716e-01</leafValues></_>
        <_>
          <internalNodes>
            0 -1 252 3.9804006519261748e-05</internalNodes>
          <leafValues>
            2.0663669705390930e-01 -4.2524105310440063e-01</leafValues></_>
        <_>
          <internalNodes>
            0 -1 91 4.9145564436912537e-02</internalNodes>
          <leafValues>
            -1.3051764667034149e-01 7.0890468358993530e-01</leafValues></_>
        <_>
          <internalNodes>
            0 -1 2 -3.5497790575027466e-01</internalNodes>
          <leafValues>
            3.1874793767929077e-01 -2.4705378711223602e-01</leafValues></_>
        <_>
          <internalNodes>
            0 -1 57 -2.2402442991733551e-03</internalNodes>
          <leafValues>
            4.4661039113998413e-01 -1.6964370012283325e-01</leafValues></_>
        <_>
          <internalNodes>
            0 -1 38 -2.1208371035754681e-03</internalNodes>
          <leafValues>
            3.9254176616668701e-01 -2.0011918246746063e-01</leafValues></_>
        <_>
          <internalNodes>
            0 -1 248 2.9539424576796591e-04</internalNodes>
          <leafValues>
            -3.1053131818771362e-01 2.4107480049133301e-01</leafValues></_>
        <_>
          <internalNodes>
            0 -1 181 8.5693964138044976e-06</internalNodes>
          <leafValues>
            2.1641594171524048e-01 -3.4623932838439941e-01</leafValues></_>
        <_>
          <internalNodes>
            0 -1 13 -3.6969652865082026e-04</internalNodes>
          <leafValues>
            3.2296881079673767e-01 -2.2743685543537140e-01</leafValues></_></weakClassifiers></_>
    <!-- stage 15 -->
    <_>
      <maxWeakCount>22</maxWeakCount>
      <stageThreshold>-8.3948075771331787e-01</stageThreshold>
      <weakClassifiers>
        <_>
          <internalNodes>
            0 -1 158 6.4598469180054963e-05</internalNodes>
          <leafValues>
            5.2655267715454102e-01 -2.1850900352001190e-01</leafValues></_>
        <_>
          <internalNodes>
            0 -1 240 1.2426618923200294e-05</internalNodes>
          <leafValues>
            -3.3510506153106689e-01 2.6849851012229919e-01</leafValues></_>
        <_>
          <internalNodes>
            0 -1 52 -1.5011858195066452e-02</internalNodes>
          <leafValues>
            2.0491020381450653e-01 -3.9102408289909363e-01</leafValues></_>
        <_>
          <internalNodes>
            0 -1 253 7.7859438024461269e-03</internalNodes>
          <leafValues>
            1.2505725026130676e-01 -6.2452679872512817e-01</leafValues></_>
        <_>
          <internalNodes>
            0 -1 109 -3.3644974231719971e-02</internalNodes>
          <leafValues>
            5.7561039924621582e-01 -1.6214437782764435e-01</leafValues></_>
        <_>
          <internalNodes>
            0 -1 250 -4.3315226212143898e-03</internalNodes>
          <leafValues>
            4.5744976401329041e-01 -1.8753893673419952e-01</leafValues></_>
        <_>
          <internalNodes>
            0 -1 306 -1.6674094367772341e-03</internalNodes>
          <leafValues>
            -7.0107543468475342e-01 1.0313398391008377e-01</leafValues></_>
        <_>
          <internalNodes>
            0 -1 127 4.6180753997759894e-05</internalNodes>
          <leafValues>
            1.0504192113876343e-01 -6.2900882959365845e-01</leafValues></_>
        <_>
          <internalNodes>
            0 -1 79 -3.7844486068934202e-03</internalNodes>
          <leafValues>
            2.9863169789314270e-01 -2.4804279208183289e-01</leafValues></_>
        <_>
          <internalNodes>
            0 -1 127 -4.0048376831691712e-05</internalNodes>
          <leafValues>
            -5.4862827062606812e-01 1.3292434811592102e-01</leafValues></_>
        <_>
          <internalNodes>
            0 -1 20 -3.6837956868112087e-03</internalNodes>
          <leafValues>
            3.6639338731765747e-01 -2.1480759978294373e-01</leafValues></_>
        <_>
          <internalNodes>
            0 -1 257 -4.7882774379104376e-04</internalNodes>
          <leafValues>
            4.2768788337707520e-01 -1.6993246972560883e-01</leafValues></_>
        <_>
          <internalNodes>
            0 -1 216 6.8939998527639546e-06</internalNodes>
          <leafValues>
            1.8661575019359589e-01 -4.2600506544113159e-01</leafValues></_>
        <_>
          <internalNodes>
            0 -1 184 5.8284513215767220e-06</internalNodes>
          <leafValues>
            1.9411249458789825e-01 -3.7528920173645020e-01</leafValues></_>
        <_>
          <internalNodes>
            0 -1 19 -1.0849443497136235e-03</internalNodes>
          <leafValues>
            3.1727802753448486e-01 -2.3619145154953003e-01</leafValues></_>
        <_>
          <internalNodes>
            0 -1 92 4.0022656321525574e-04</internalNodes>
          <leafValues>
            1.2550210952758789e-01 -5.8747422695159912e-01</leafValues></_>
        <_>
          <internalNodes>
            0 -1 190 3.7619308568537235e-03</internalNodes>
          <leafValues>
            -7.3867613077163696e-01 7.9971991479396820e-02</leafValues></_>
        <_>
          <internalNodes>
            0 -1 243 -3.2317670993506908e-03</internalNodes>
          <leafValues>
            4.9300023913383484e-01 -1.5821440517902374e-01</leafValues></_>
        <_>
          <internalNodes>
            0 -1 227 -1.8729742150753736e-03</internalNodes>
          <leafValues>
            4.1257622838020325e-01 -1.7130859196186066e-01</leafValues></_>
        <_>
          <internalNodes>
            0 -1 45 -2.1849204786121845e-03</internalNodes>
          <leafValues>
            5.0125652551651001e-01 -1.3768929243087769e-01</leafValues></_>
        <_>
          <internalNodes>
            0 -1 247 -1.9523504306562245e-04</internalNodes>
          <leafValues>
            -7.5948178768157959e-01 9.7730100154876709e-02</leafValues></_>
        <_>
          <internalNodes>
            0 -1 47 -4.3937616283074021e-04</internalNodes>
          <leafValues>
            2.9055210947990417e-01 -2.3245547711849213e-01</leafValues></_></weakClassifiers></_>
    <!-- stage 16 -->
    <_>
      <maxWeakCount>21</maxWeakCount>
      <stageThreshold>-8.9750611782073975e-01</stageThreshold>
      <weakClassifiers>
        <_>
          <internalNodes>
            0 -1 140 1.4297538436949253e-03</internalNodes>
          <leafValues>
            -1.0133060067892075e-01 5.4325258731842041e-01</leafValues></_>
        <_>
          <internalNodes>
            0 -1 166 -4.5230647083371878e-04</internalNodes>
          <leafValues>
            2.6061815023422241e-01 -3.8631936907768250e-01</leafValues></_>
        <_>
          <internalNodes>
            0 -1 282 1.0367296636104584e-02</internalNodes>
          <leafValues>
            -4.6338984370231628e-01 1.9954627752304077e-01</leafValues></_>
        <_>
          <internalNodes>
            0 -1 217 -7.7045806392561644e-06</internalNodes>
          <leafValues>
            -3.9382916688919067e-01 1.9280131161212921e-01</leafValues></_>
        <_>
          <internalNodes>
            0 -1 156 -2.5322127621620893e-03</internalNodes>
          <leafValues>
            3.0105519294738770e-01 -2.6069712638854980e-01</leafValues></_>
        <_>
          <internalNodes>
            0 -1 193 -1.1989613994956017e-05</internalNodes>
          <leafValues>
            -4.4786459207534790e-01 1.7770802974700928e-01</leafValues></_>
        <_>
          <internalNodes>
            0 -1 23 -5.4406948387622833e-02</internalNodes>
          <leafValues>
            4.7872459888458252e-01 -1.8099364638328552e-01</leafValues></_>
        <_>
          <internalNodes>
            0 -1 271 2.6760608889162540e-03</internalNodes>
          <leafValues>
            -1.8325735628604889e-01 3.8997146487236023e-01</leafValues></_>
        <_>
          <internalNodes>
            0 -1 133 -9.5053161203395575e-05</internalNodes>
          <leafValues>
            -6.1600005626678467e-01 1.1303031444549561e-01</leafValues></_>
        <_>
          <internalNodes>
            0 -1 87 4.3811267241835594e-03</internalNodes>
          <leafValues>
            -5.2948731184005737e-01 1.3142649829387665e-01</leafValues></_>
        <_>
          <internalNodes>
            0 -1 304 -6.0099118854850531e-04</internalNodes>
          <leafValues>
            4.3531784415245056e-01 -1.6429436206817627e-01</leafValues></_>
        <_>
          <internalNodes>
            0 -1 302 2.6106950826942921e-04</internalNodes>
          <leafValues>
            -1.9056753814220428e-01 4.5032021403312683e-01</leafValues></_>
        <_>
          <internalNodes>
            0 -1 299 -1.3096192851662636e-03</internalNodes>
          <leafValues>
            4.8036953806877136e-01 -1.4590182900428772e-01</leafValues></_>
        <_>
          <internalNodes>
            0 -1 245 -2.5551347061991692e-04</internalNodes>
          <leafValues>
            -6.8864470720291138e-01 1.2328000366687775e-01</leafValues></_>
        <_>
          <internalNodes>
            0 -1 259 -1.0484511731192470e-03</internalNodes>
          <leafValues>
            3.4869843721389771e-01 -2.0314209163188934e-01</leafValues></_>
        <_>
          <internalNodes>
            0 -1 175 1.7150554340332747e-03</internalNodes>
          <leafValues>
            -4.0339529514312744e-01 1.6984450817108154e-01</leafValues></_>
        <_>
          <internalNodes>
            0 -1 1 3.6196754081174731e-04</internalNodes>
          <leafValues>
            9.7664810717105865e-02 -6.2995636463165283e-01</leafValues></_>
        <_>
          <internalNodes>
            0 -1 159 3.3089995384216309e-02</internalNodes>
          <leafValues>
            7.7401362359523773e-02 -8.0339610576629639e-01</leafValues></_>
        <_>
          <internalNodes>
            0 -1 77 -1.1960001575062051e-04</internalNodes>
          <leafValues>
            3.1641945242881775e-01 -2.1418887376785278e-01</leafValues></_>
        <_>
          <internalNodes>
            0 -1 113 -1.7739919712767005e-04</internalNodes>
          <leafValues>
            -6.1131787300109863e-01 1.2013566493988037e-01</leafValues></_>
        <_>
          <internalNodes>
            0 -1 312 -7.2637805715203285e-04</internalNodes>
          <leafValues>
            4.1302081942558289e-01 -1.8145000934600830e-01</leafValues></_></weakClassifiers></_>
    <!-- stage 17 -->
    <_>
      <maxWeakCount>23</maxWeakCount>
      <stageThreshold>-9.2884975671768188e-01</stageThreshold>
      <weakClassifiers>
        <_>
          <internalNodes>
            0 -1 143 -1.3924809172749519e-04</internalNodes>
          <leafValues>
            6.0537570714950562e-01 6.6030812449753284e-03</leafValues></_>
        <_>
          <internalNodes>
            0 -1 207 -4.0937485173344612e-03</internalNodes>
          <leafValues>
            3.5323175787925720e-01 -2.5598356127738953e-01</leafValues></_>
        <_>
          <internalNodes>
            0 -1 238 -9.0436615209910087e-06</internalNodes>
          <leafValues>
            -4.0605446696281433e-01 2.3156534135341644e-01</leafValues></_>
        <_>
          <internalNodes>
            0 -1 230 -9.8014192190021276e-05</internalNodes>
          <leafValues>
            2.7036553621292114e-01 -3.1315371394157410e-01</leafValues></_>
        <_>
          <internalNodes>
            0 -1 291 8.6867017671465874e-03</internalNodes>
          <leafValues>
            -2.3437818884849548e-01 3.1840986013412476e-01</leafValues></_>
        <_>
          <internalNodes>
            0 -1 172 -1.6848556697368622e-03</internalNodes>
          <leafValues>
            1.3478715717792511e-01 -4.6155336499214172e-01</leafValues></_>
        <_>
          <internalNodes>
            0 -1 120 -2.7399482205510139e-03</internalNodes>
          <leafValues>
            2.8354001045227051e-01 -2.4923767149448395e-01</leafValues></_>
        <_>
          <internalNodes>
            0 -1 8 1.7227558419108391e-02</internalNodes>
          <leafValues>
            -1.4214472472667694e-01 4.8337844014167786e-01</leafValues></_>
        <_>
          <internalNodes>
            0 -1 16 -5.0002438947558403e-03</internalNodes>
          <leafValues>
            5.1360881328582764e-01 -1.7850029468536377e-01</leafValues></_>
        <_>
          <internalNodes>
            0 -1 254 1.7270247917622328e-03</internalNodes>
          <leafValues>
            1.0579229146242142e-01 -7.9946583509445190e-01</leafValues></_>
        <_>
          <internalNodes>
            0 -1 213 2.6456947671249509e-04</internalNodes>
          <leafValues>
            -4.1166418790817261e-01 1.6628047823905945e-01</leafValues></_>
        <_>
          <internalNodes>
            0 -1 303 -6.9653033278882504e-04</internalNodes>
          <leafValues>
            4.3660956621170044e-01 -1.7700125277042389e-01</leafValues></_>
        <_>
          <internalNodes>
            0 -1 167 -3.0618737218901515e-04</internalNodes>
          <leafValues>
            -4.0421909093856812e-01 1.7597571015357971e-01</leafValues></_>
        <_>
          <internalNodes>
            0 -1 112 8.2002328708767891e-03</internalNodes>
          <leafValues>
            -1.2143347412347794e-01 5.9940773248672485e-01</leafValues></_>
        <_>
          <internalNodes>
            0 -1 206 5.4370230063796043e-03</internalNodes>
          <leafValues>
            -9.4285383820533752e-02 7.0027166604995728e-01</leafValues></_>
        <_>
          <internalNodes>
            0 -1 18 -7.9207599628716707e-04</internalNodes>
          <leafValues>
            3.9136245846748352e-01 -1.7936055362224579e-01</leafValues></_>
        <_>
          <internalNodes>
            0 -1 262 -4.7073132009245455e-05</internalNodes>
          <leafValues>
            -4.4210451841354370e-01 1.5262180566787720e-01</leafValues></_>
        <_>
          <internalNodes>
            0 -1 81 8.6711125914007425e-04</internalNodes>
          <leafValues>
            -3.2627776265144348e-01 2.0210763812065125e-01</leafValues></_>
        <_>
          <internalNodes>
            0 -1 270 1.3264865265227854e-04</internalNodes>
          <leafValues>
            1.2215454876422882e-01 -5.6757795810699463e-01</leafValues></_>
        <_>
          <internalNodes>
            0 -1 25 -1.8093336839228868e-03</internalNodes>
          <leafValues>
            3.8843190670013428e-01 -1.9329704344272614e-01</leafValues></_>
        <_>
          <internalNodes>
            0 -1 132 -5.5688741849735379e-04</internalNodes>
          <leafValues>
            -7.6196968555450439e-01 9.3499042093753815e-02</leafValues></_>
        <_>
          <internalNodes>
            0 -1 78 -3.5861539654433727e-03</internalNodes>
          <leafValues>
            1.4463527500629425e-01 -4.4116595387458801e-01</leafValues></_>
        <_>
          <internalNodes>
            0 -1 71 -5.4703693604096770e-04</internalNodes>
          <leafValues>
            3.6644700169563293e-01 -1.9264218211174011e-01</leafValues></_></weakClassifiers></_>
    <!-- stage 18 -->
    <_>
      <maxWeakCount>24</maxWeakCount>
      <stageThreshold>-9.2205148935317993e-01</stageThreshold>
      <weakClassifiers>
        <_>
          <internalNodes>
            0 -1 180 -8.2147645298391581e-04</internalNodes>
          <leafValues>
            5.4427754878997803e-01 -4.7708138823509216e-02</leafValues></_>
        <_>
          <internalNodes>
            0 -1 226 -8.6414465840789489e-06</internalNodes>
          <leafValues>
            -5.2414357662200928e-01 1.9779422879219055e-01</leafValues></_>
        <_>
          <internalNodes>
            0 -1 255 5.0330258090980351e-05</internalNodes>
          <leafValues>
            -2.9946634173393250e-01 2.6374405622482300e-01</leafValues></_>
        <_>
          <internalNodes>
            0 -1 280 -2.7527147904038429e-03</internalNodes>
          <leafValues>
            -6.4492660760879517e-01 1.2008715420961380e-01</leafValues></_>
        <_>
          <internalNodes>
            0 -1 9 -1.3787288917228580e-03</internalNodes>
          <leafValues>
            3.4858140349388123e-01 -2.3939639329910278e-01</leafValues></_>
        <_>
          <internalNodes>
            0 -1 55 -8.1880012294277549e-04</internalNodes>
          <leafValues>
            4.9617370963096619e-01 -1.7559906840324402e-01</leafValues></_>
        <_>
          <internalNodes>
            0 -1 95 3.3059570705518126e-04</internalNodes>
          <leafValues>
            -1.5151743590831757e-01 5.0090003013610840e-01</leafValues></_>
        <_>
          <internalNodes>
            0 -1 69 -2.0985468290746212e-04</internalNodes>
          <leafValues>
            2.3539665341377258e-01 -3.1661814451217651e-01</leafValues></_>
        <_>
          <internalNodes>
            0 -1 115 3.2199484849115834e-05</internalNodes>
          <leafValues>
            1.0616601258516312e-01 -5.8137613534927368e-01</leafValues></_>
        <_>
          <internalNodes>
            0 -1 295 9.8401023933547549e-06</internalNodes>
          <leafValues>
            -3.7078598141670227e-01 1.8662454187870026e-01</leafValues></_>
        <_>
          <internalNodes>
            0 -1 202 1.6790039808256552e-05</internalNodes>
          <leafValues>
            1.3155891001224518e-01 -4.8170903325080872e-01</leafValues></_>
        <_>
          <internalNodes>
            0 -1 104 -1.6620077658444643e-03</internalNodes>
          <leafValues>
            4.2308518290519714e-01 -1.6877993941307068e-01</leafValues></_>
        <_>
          <internalNodes>
            0 -1 174 -9.0670946519821882e-06</internalNodes>
          <leafValues>
            -3.6061623692512512e-01 2.3052699863910675e-01</leafValues></_>
        <_>
          <internalNodes>
            0 -1 178 -2.0298302173614502e-02</internalNodes>
          <leafValues>
            1.7891877889633179e-01 -4.1442751884460449e-01</leafValues></_>
        <_>
          <internalNodes>
            0 -1 222 -4.9780211411416531e-03</internalNodes>
          <leafValues>
            3.2586207985877991e-01 -1.9838751852512360e-01</leafValues></_>
        <_>
          <internalNodes>
            0 -1 278 -6.0471892356872559e-03</internalNodes>
          <leafValues>
            -6.0730618238449097e-01 1.1244799941778183e-01</leafValues></_>
        <_>
          <internalNodes>
            0 -1 135 -4.1723577305674553e-04</internalNodes>
          <leafValues>
            3.5026130080223083e-01 -2.0652474462985992e-01</leafValues></_>
        <_>
          <internalNodes>
            0 -1 83 4.5922631397843361e-03</internalNodes>
          <leafValues>
            -3.9849996566772461e-01 1.8479965627193451e-01</leafValues></_>
        <_>
          <internalNodes>
            0 -1 275 2.7583204791881144e-04</internalNodes>
          <leafValues>
            -2.4053250253200531e-01 3.0451175570487976e-01</leafValues></_>
        <_>
          <internalNodes>
            0 -1 274 -5.1374336180742830e-05</internalNodes>
          <leafValues>
            -4.3434828519821167e-01 1.6179113090038300e-01</leafValues></_>
        <_>
          <internalNodes>
            0 -1 205 4.2456586379557848e-04</internalNodes>
          <leafValues>
            -1.9166792929172516e-01 3.7597522139549255e-01</leafValues></_>
        <_>
          <internalNodes>
            0 -1 90 -1.9126933068037033e-02</internalNodes>
          <leafValues>
            3.7103497982025146e-01 -1.8633736670017242e-01</leafValues></_>
        <_>
          <internalNodes>
            0 -1 84 1.0270799975842237e-03</internalNodes>
          <leafValues>
            -9.7018904983997345e-02 6.2757432460784912e-01</leafValues></_>
        <_>
          <internalNodes>
            0 -1 260 -1.6287891776300967e-04</internalNodes>
          <leafValues>
            -6.9546484947204590e-01 1.1467663198709488e-01</leafValues></_></weakClassifiers></_>
    <!-- stage 19 -->
    <_>
      <maxWeakCount>21</maxWeakCount>
      <stageThreshold>-8.3816331624984741e-01</stageThreshold>
      <weakClassifiers>
        <_>
          <internalNodes>
            0 -1 194 -6.5856188302859664e-04</internalNodes>
          <leafValues>
            5.5420464277267456e-01 -9.1617934405803680e-02</leafValues></_>
        <_>
          <internalNodes>
            0 -1 130 1.0417160228826106e-04</internalNodes>
          <leafValues>
            -1.8258051574230194e-01 3.9569434523582458e-01</leafValues></_>
        <_>
          <internalNodes>
            0 -1 46 2.8892746195197105e-03</internalNodes>
          <leafValues>
            -5.9180712699890137e-01 1.2953890860080719e-01</leafValues></_>
        <_>
          <internalNodes>
            0 -1 88 -5.0982786342501640e-04</internalNodes>
          <leafValues>
            1.6983346641063690e-01 -3.9134725928306580e-01</leafValues></_>
        <_>
          <internalNodes>
            0 -1 137 -5.0976872444152832e-04</internalNodes>
          <leafValues>
            -4.4587036967277527e-01 1.4507733285427094e-01</leafValues></_>
        <_>
          <internalNodes>
            0 -1 283 -1.4347061514854431e-03</internalNodes>
          <leafValues>
            1.8583679199218750e-01 -3.4564873576164246e-01</leafValues></_>
        <_>
          <internalNodes>
            0 -1 267 7.9894773080013692e-05</internalNodes>
          <leafValues>
            1.3106359541416168e-01 -4.0409046411514282e-01</leafValues></_>
        <_>
          <internalNodes>
            0 -1 76 3.7852949462831020e-03</internalNodes>
          <leafValues>
            -1.2343382835388184e-01 4.8110666871070862e-01</leafValues></_>
        <_>
          <internalNodes>
            0 -1 297 1.0025652591139078e-04</internalNodes>
          <leafValues>
            -1.5448889136314392e-01 3.9445623755455017e-01</leafValues></_>
        <_>
          <internalNodes>
            0 -1 289 -3.8919353391975164e-04</internalNodes>
          <leafValues>
            4.6939206123352051e-01 -1.5712407231330872e-01</leafValues></_>
        <_>
          <internalNodes>
            0 -1 173 2.2394095140043646e-05</internalNodes>
          <leafValues>
            1.6205744445323944e-01 -4.2683684825897217e-01</leafValues></_>
        <_>
          <internalNodes>
            0 -1 123 -1.2203026562929153e-02</internalNodes>
          <leafValues>
            4.0215295553207397e-01 -1.6888515651226044e-01</leafValues></_>
        <_>
          <internalNodes>
            0 -1 144 -1.4477492077276111e-03</internalNodes>
          <leafValues>
            3.9223039150238037e-01 -1.8215294182300568e-01</leafValues></_>
        <_>
          <internalNodes>
            0 -1 288 1.2928028809255920e-05</internalNodes>
          <leafValues>
            -3.7060517072677612e-01 1.9952718913555145e-01</leafValues></_>
        <_>
          <internalNodes>
            0 -1 68 2.5350917130708694e-02</internalNodes>
          <leafValues>
            6.4901143312454224e-02 -8.6106622219085693e-01</leafValues></_>
        <_>
          <internalNodes>
            0 -1 179 -1.6070327255874872e-03</internalNodes>
          <leafValues>
            2.2793300449848175e-01 -2.8640052676200867e-01</leafValues></_>
        <_>
          <internalNodes>
            0 -1 261 1.0978397040162235e-04</internalNodes>
          <leafValues>
            9.9584616720676422e-02 -7.9254084825515747e-01</leafValues></_>
        <_>
          <internalNodes>
            0 -1 256 -1.8181058112531900e-04</internalNodes>
          <leafValues>
            -4.7196683287620544e-01 1.1908487975597382e-01</leafValues></_>
        <_>
          <internalNodes>
            0 -1 313 9.3333139375317842e-05</internalNodes>
          <leafValues>
            -1.9282346963882446e-01 3.5309481620788574e-01</leafValues></_>
        <_>
          <internalNodes>
            0 -1 26 -4.6877432614564896e-03</internalNodes>
          <leafValues>
            -5.4699921607971191e-01 1.2739518284797668e-01</leafValues></_>
        <_>
          <internalNodes>
            0 -1 281 8.3667175204027444e-05</internalNodes>
          <leafValues>
            -1.5243348479270935e-01 4.3824794888496399e-01</leafValues></_></weakClassifiers></_></stages>
  <features>
    <_>
      <rects>
        <_>
          0 0 2 54 -1.</_>
        <_>
          1 0 1 54 2.</_></rects>
      <tilted>0</tilted></_>
    <_>
      <rects>
        <_>
          0 0 6 1 -1.</_>
        <_>
          3 0 3 1 2.</_></rects>
      <tilted>0</tilted></_>
    <_>
      <rects>
        <_>
          0 0 39 63 -1.</_>
        <_>
          13 21 13 21 9.</_></rects>
      <tilted>0</tilted></_>
    <_>
      <rects>
        <_>
          0 1 33 57 -1.</_>
        <_>
          11 20 11 19 9.</_></rects>
      <tilted>0</tilted></_>
    <_>
      <rects>
        <_>
          0 3 4 21 -1.</_>
        <_>
          1 3 2 21 2.</_></rects>
      <tilted>0</tilted></_>
    <_>
      <rects>
        <_>
          0 3 2 63 -1.</_>
        <_>
          1 3 1 63 2.</_></rects>
      <tilted>0</tilted></_>
    <_>
      <rects>
        <_>
          0 3 6 65 -1.</_>
        <_>
          2 3 2 65 3.</_></rects>
      <tilted>0</tilted></_>
    <_>
      <rects>
        <_>
          0 6 4 47 -1.</_>
        <_>
          1 6 2 47 2.</_></rects>
      <tilted>0</tilted></_>
    <_>
      <rects>
        <_>
          0 8 6 66 -1.</_>
        <_>
          3 8 3 66 2.</_></rects>
      <tilted>0</tilted></_>
    <_>
      <rects>
        <_>
          0 9 8 8 -1.</_>
        <_>
          2 9 4 8 2.</_></rects>
      <tilted>0</tilted></_>
    <_>
      <rects>
        <_>
          0 11 4 63 -1.</_>
        <_>
          1 11 2 63 2.</_></rects>
      <tilted>0</tilted></_>
    <_>
      <rects>
        <_>
          0 11 8 29 -1.</_>
        <_>
          4 11 4 29 2.</_></rects>
      <tilted>0</tilted></_>
    <_>
      <rects>
        <_>
          0 12 4 44 -1.</_>
        <_>
          1 12 2 44 2.</_></rects>
      <tilted>0</tilted></_>
    <_>
      <rects>
        <_>
          0 14 4 8 -1.</_>
        <_>
          1 14 2 8 2.</_></rects>
      <tilted>0</tilted></_>
    <_>
      <rects>
        <_>
          0 14 4 34 -1.</_>
        <_>
          2 14 2 34 2.</_></rects>
      <tilted>0</tilted></_>
    <_>
      <rects>
        <_>
          0 15 4 47 -1.</_>
        <_>
          2 15 2 47 2.</_></rects>
      <tilted>0</tilted></_>
    <_>
      <rects>
        <_>
          0 17 8 8 -1.</_>
        <_>
          4 17 4 8 2.</_></rects>
      <tilted>0</tilted></_>
    <_>
      <rects>
        <_>
          0 26 2 18 -1.</_>
        <_>
          1 26 1 18 2.</_></rects>
      <tilted>0</tilted></_>
    <_>
      <rects>
        <_>
          0 28 3 20 -1.</_>
        <_>
          1 28 1 20 3.</_></rects>
      <tilted>0</tilted></_>
    <_>
      <rects>
        <_>
          0 36 4 34 -1.</_>
        <_>
          1 36 2 34 2.</_></rects>
      <tilted>0</tilted></_>
    <_>
      <rects>
        <_>
          0 50 40 8 -1.</_>
        <_>
          0 52 40 4 2.</_></rects>
      <tilted>0</tilted></_>
    <_>
      <rects>
        <_>
          1 0 24 3 -1.</_>
        <_>
          1 1 24 1 3.</_></rects>
      <tilted>0</tilted></_>
    <_>
      <rects>
        <_>
          1 4 6 28 -1.</_>
        <_>
          3 4 2 28 3.</_></rects>
      <tilted>0</tilted></_>
    <_>
      <rects>
        <_>
          1 8 27 9 -1.</_>
        <_>
          10 11 9 3 9.</_></rects>
      <tilted>0</tilted></_>
    <_>
      <rects>
        <_>
          1 14 8 54 -1.</_>
        <_>
          3 14 4 54 2.</_></rects>
      <tilted>0</tilted></_>
    <_>
      <rects>
        <_>
          1 33 6 13 -1.</_>
        <_>
          3 33 2 13 3.</_></rects>
      <tilted>0</tilted></_>
    <_>
      <rects>
        <_>
          1 42 42 1 -1.</_>
        <_>
          22 42 21 1 2.</_></rects>
      <tilted>0</tilted></_>
    <_>
      <rects>
        <_>
          2 21 4 18 -1.</_>
        <_>
          3 21 2 18 2.</_></rects>
      <tilted>0</tilted></_>
    <_>
      <rects>
        <_>
          2 25 4 25 -1.</_>
        <_>
          3 25 2 25 2.</_></rects>
      <tilted>0</tilted></_>
    <_>
      <rects>
        <_>
          3 7 24 41 -1.</_>
        <_>
          9 7 12 41 2.</_></rects>
      <tilted>0</tilted></_>
    <_>
      <rects>
        <_>
          3 20 6 30 -1.</_>
        <_>
          6 20 3 30 2.</_></rects>
      <tilted>0</tilted></_>
    <_>
      <rects>
        <_>
          3 25 40 44 -1.</_>
        <_>
          13 25 20 44 2.</_></rects>
      <tilted>0</tilted></_>
    <_>
      <rects>
        <_>
          3 26 6 5 -1.</_>
        <_>
          5 26 2 5 3.</_></rects>
      <tilted>0</tilted></_>
    <_>
      <rects>
        <_>
          3 35 24 9 -1.</_>
        <_>
          11 38 8 3 9.</_></rects>
      <tilted>0</tilted></_>
    <_>
      <rects>
        <_>
          3 37 40 27 -1.</_>
        <_>
          13 37 20 27 2.</_></rects>
      <tilted>0</tilted></_>
    <_>
      <rects>
        <_>
          4 0 32 3 -1.</_>
        <_>
          4 1 32 1 3.</_></rects>
      <tilted>0</tilted></_>
    <_>
      <rects>
        <_>
          4 16 18 25 -1.</_>
        <_>
          10 16 6 25 3.</_></rects>
      <tilted>0</tilted></_>
    <_>
      <rects>
        <_>
          4 17 6 28 -1.</_>
        <_>
          7 17 3 28 2.</_></rects>
      <tilted>0</tilted></_>
    <_>
      <rects>
        <_>
          4 38 21 6 -1.</_>
        <_>
          4 40 21 2 3.</_></rects>
      <tilted>0</tilted></_>
    <_>
      <rects>
        <_>
          4 47 26 6 -1.</_>
        <_>
          17 47 13 6 2.</_></rects>
      <tilted>0</tilted></_>
    <_>
      <rects>
        <_>
          5 4 21 15 -1.</_>
        <_>
          12 9 7 5 9.</_></rects>
      <tilted>0</tilted></_>
    <_>
      <rects>
        <_>
          5 7 30 9 -1.</_>
        <_>
          5 10 30 3 3.</_></rects>
      <tilted>0</tilted></_>
    <_>
      <rects>
        <_>
          5 33 10 36 -1.</_>
        <_>
          10 33 5 36 2.</_></rects>
      <tilted>0</tilted></_>
    <_>
      <rects>
        <_>
          5 49 18 11 -1.</_>
        <_>
          14 49 9 11 2.</_></rects>
      <tilted>0</tilted></_>
    <_>
      <rects>
        <_>
          6 1 33 60 -1.</_>
        <_>
          17 21 11 20 9.</_></rects>
      <tilted>0</tilted></_>
    <_>
      <rects>
        <_>
          6 12 4 3 -1.</_>
        <_>
          6 12 2 3 2.</_></rects>
      <tilted>1</tilted></_>
    <_>
      <rects>
        <_>
          6 30 28 6 -1.</_>
        <_>
          6 30 14 6 2.</_></rects>
      <tilted>1</tilted></_>
    <_>
      <rects>
        <_>
          6 43 16 4 -1.</_>
        <_>
          6 44 16 2 2.</_></rects>
      <tilted>0</tilted></_>
    <_>
      <rects>
        <_>
          6 46 15 8 -1.</_>
        <_>
          6 48 15 4 2.</_></rects>
      <tilted>0</tilted></_>
    <_>
      <rects>
        <_>
          6 60 21 8 -1.</_>
        <_>
          13 60 7 8 3.</_></rects>
      <tilted>0</tilted></_>
    <_>
      <rects>
        <_>
          7 7 9 4 -1.</_>
        <_>
          7 8 9 2 2.</_></rects>
      <tilted>0</tilted></_>
    <_>
      <rects>
        <_>
          7 13 24 8 -1.</_>
        <_>
          7 17 24 4 2.</_></rects>
      <tilted>0</tilted></_>
    <_>
      <rects>
        <_>
          7 47 24 21 -1.</_>
        <_>
          13 47 12 21 2.</_></rects>
      <tilted>0</tilted></_>
    <_>
      <rects>
        <_>
          7 47 36 10 -1.</_>
        <_>
          16 47 18 10 2.</_></rects>
      <tilted>0</tilted></_>
    <_>
      <rects>
        <_>
          7 48 36 4 -1.</_>
        <_>
          19 48 12 4 3.</_></rects>
      <tilted>0</tilted></_>
    <_>
      <rects>
        <_>
          8 1 14 3 -1.</_>
        <_>
          8 2 14 1 3.</_></rects>
      <tilted>0</tilted></_>
    <_>
      <rects>
        <_>
          8 38 11 8 -1.</_>
        <_>
          8 40 11 4 2.</_></rects>
      <tilted>0</tilted></_>
    <_>
      <rects>
        <_>
          8 41 17 6 -1.</_>
        <_>
          8 43 17 2 3.</_></rects>
      <tilted>0</tilted></_>
    <_>
      <rects>
        <_>
          8 45 12 6 -1.</_>
        <_>
          8 47 12 2 3.</_></rects>
      <tilted>0</tilted></_>
    <_>
      <rects>
        <_>
          8 46 13 9 -1.</_>
        <_>
          8 49 13 3 3.</_></rects>
      <tilted>0</tilted></_>
    <_>
      <rects>
        <_>
          8 46 14 18 -1.</_>
        <_>
          8 55 14 9 2.</_></rects>
      <tilted>0</tilted></_>
    <_>
      <rects>
        <_>
          8 55 34 1 -1.</_>
        <_>
          25 55 17 1 2.</_></rects>
      <tilted>0</tilted></_>
    <_>
      <rects>
        <_>
          9 39 6 14 -1.</_>
        <_>
          9 46 6 7 2.</_></rects>
      <tilted>0</tilted></_>
    <_>
      <rects>
        <_>
          9 44 16 6 -1.</_>
        <_>
          9 46 16 2 3.</_></rects>
      <tilted>0</tilted></_>
    <_>
      <rects>
        <_>
          9 46 11 8 -1.</_>
        <_>
          9 48 11 4 2.</_></rects>
      <tilted>0</tilted></_>
    <_>
      <rects>
        <_>
          9 47 2 4 -1.</_>
        <_>
          9 49 2 2 2.</_></rects>
      <tilted>0</tilted></_>
    <_>
      <rects>
        <_>
          9 47 28 19 -1.</_>
        <_>
          16 47 14 19 2.</_></rects>
      <tilted>0</tilted></_>
    <_>
      <rects>
        <_>
          9 49 20 8 -1.</_>
        <_>
          9 49 10 4 2.</_>
        <_>
          19 53 10 4 2.</_></rects>
      <tilted>0</tilted></_>
    <_>
      <rects>
        <_>
          9 59 22 12 -1.</_>
        <_>
          9 59 11 6 2.</_>
        <_>
          20 65 11 6 2.</_></rects>
      <tilted>0</tilted></_>
    <_>
      <rects>
        <_>
          9 65 16 1 -1.</_>
        <_>
          13 65 8 1 2.</_></rects>
      <tilted>0</tilted></_>
    <_>
      <rects>
        <_>
          10 3 9 15 -1.</_>
        <_>
          13 8 3 5 9.</_></rects>
      <tilted>0</tilted></_>
    <_>
      <rects>
        <_>
          10 11 4 5 -1.</_>
        <_>
          11 12 2 5 2.</_></rects>
      <tilted>1</tilted></_>
    <_>
      <rects>
        <_>
          10 33 30 20 -1.</_>
        <_>
          10 38 30 10 2.</_></rects>
      <tilted>0</tilted></_>
    <_>
      <rects>
        <_>
          10 43 11 4 -1.</_>
        <_>
          10 44 11 2 2.</_></rects>
      <tilted>0</tilted></_>
    <_>
      <rects>
        <_>
          10 44 12 4 -1.</_>
        <_>
          10 45 12 2 2.</_></rects>
      <tilted>0</tilted></_>
    <_>
      <rects>
        <_>
          10 44 16 6 -1.</_>
        <_>
          10 46 16 2 3.</_></rects>
      <tilted>0</tilted></_>
    <_>
      <rects>
        <_>
          10 47 9 6 -1.</_>
        <_>
          10 49 9 2 3.</_></rects>
      <tilted>0</tilted></_>
    <_>
      <rects>
        <_>
          10 50 3 2 -1.</_>
        <_>
          10 51 3 1 2.</_></rects>
      <tilted>0</tilted></_>
    <_>
      <rects>
        <_>
          10 62 21 6 -1.</_>
        <_>
          17 64 7 2 9.</_></rects>
      <tilted>0</tilted></_>
    <_>
      <rects>
        <_>
          11 9 9 7 -1.</_>
        <_>
          14 12 3 7 3.</_></rects>
      <tilted>1</tilted></_>
    <_>
      <rects>
        <_>
          11 37 6 15 -1.</_>
        <_>
          11 42 6 5 3.</_></rects>
      <tilted>0</tilted></_>
    <_>
      <rects>
        <_>
          11 40 3 12 -1.</_>
        <_>
          11 46 3 6 2.</_></rects>
      <tilted>0</tilted></_>
    <_>
      <rects>
        <_>
          11 47 16 3 -1.</_>
        <_>
          11 47 8 3 2.</_></rects>
      <tilted>1</tilted></_>
    <_>
      <rects>
        <_>
          11 50 20 22 -1.</_>
        <_>
          11 50 10 11 2.</_>
        <_>
          21 61 10 11 2.</_></rects>
      <tilted>0</tilted></_>
    <_>
      <rects>
        <_>
          12 39 12 4 -1.</_>
        <_>
          12 40 12 2 2.</_></rects>
      <tilted>0</tilted></_>
    <_>
      <rects>
        <_>
          12 41 4 9 -1.</_>
        <_>
          12 44 4 3 3.</_></rects>
      <tilted>0</tilted></_>
    <_>
      <rects>
        <_>
          12 43 18 6 -1.</_>
        <_>
          18 45 6 2 9.</_></rects>
      <tilted>0</tilted></_>
    <_>
      <rects>
        <_>
          12 46 12 6 -1.</_>
        <_>
          12 46 6 6 2.</_></rects>
      <tilted>1</tilted></_>
    <_>
      <rects>
        <_>
          12 56 10 12 -1.</_>
        <_>
          12 60 10 4 3.</_></rects>
      <tilted>0</tilted></_>
    <_>
      <rects>
        <_>
          13 0 9 11 -1.</_>
        <_>
          16 3 3 11 3.</_></rects>
      <tilted>1</tilted></_>
    <_>
      <rects>
        <_>
          13 1 26 12 -1.</_>
        <_>
          13 7 26 6 2.</_></rects>
      <tilted>0</tilted></_>
    <_>
      <rects>
        <_>
          13 8 8 40 -1.</_>
        <_>
          13 18 8 20 2.</_></rects>
      <tilted>0</tilted></_>
    <_>
      <rects>
        <_>
          13 30 10 3 -1.</_>
        <_>
          13 31 10 1 3.</_></rects>
      <tilted>0</tilted></_>
    <_>
      <rects>
        <_>
          13 64 11 10 -1.</_>
        <_>
          13 69 11 5 2.</_></rects>
      <tilted>0</tilted></_>
    <_>
      <rects>
        <_>
          14 0 15 9 -1.</_>
        <_>
          19 5 5 9 3.</_></rects>
      <tilted>1</tilted></_>
    <_>
      <rects>
        <_>
          14 1 5 3 -1.</_>
        <_>
          14 2 5 1 3.</_></rects>
      <tilted>0</tilted></_>
    <_>
      <rects>
        <_>
          14 2 6 8 -1.</_>
        <_>
          16 4 2 8 3.</_></rects>
      <tilted>1</tilted></_>
    <_>
      <rects>
        <_>
          14 2 12 8 -1.</_>
        <_>
          18 6 4 8 3.</_></rects>
      <tilted>1</tilted></_>
    <_>
      <rects>
        <_>
          14 7 23 6 -1.</_>
        <_>
          12 9 23 2 3.</_></rects>
      <tilted>1</tilted></_>
    <_>
      <rects>
        <_>
          14 8 8 18 -1.</_>
        <_>
          14 14 8 6 3.</_></rects>
      <tilted>0</tilted></_>
    <_>
      <rects>
        <_>
          14 29 1 3 -1.</_>
        <_>
          14 30 1 1 3.</_></rects>
      <tilted>0</tilted></_>
    <_>
      <rects>
        <_>
          14 33 3 1 -1.</_>
        <_>
          15 33 1 1 3.</_></rects>
      <tilted>0</tilted></_>
    <_>
      <rects>
        <_>
          14 36 3 3 -1.</_>
        <_>
          15 36 1 3 3.</_></rects>
      <tilted>0</tilted></_>
    <_>
      <rects>
        <_>
          14 37 3 2 -1.</_>
        <_>
          15 37 1 2 3.</_></rects>
      <tilted>0</tilted></_>
    <_>
      <rects>
        <_>
          14 50 8 8 -1.</_>
        <_>
          14 52 8 4 2.</_></rects>
      <tilted>0</tilted></_>
    <_>
      <rects>
        <_>
          14 65 9 9 -1.</_>
        <_>
          14 68 9 3 3.</_></rects>
      <tilted>0</tilted></_>
    <_>
      <rects>
        <_>
          14 67 13 6 -1.</_>
        <_>
          14 69 13 2 3.</_></rects>
      <tilted>0</tilted></_>
    <_>
      <rects>
        <_>
          14 70 8 4 -1.</_>
        <_>
          14 72 8 2 2.</_></rects>
      <tilted>0</tilted></_>
    <_>
      <rects>
        <_>
          15 1 12 9 -1.</_>
        <_>
          19 5 4 9 3.</_></rects>
      <tilted>1</tilted></_>
    <_>
      <rects>
        <_>
          15 1 26 9 -1.</_>
        <_>
          12 4 26 3 3.</_></rects>
      <tilted>1</tilted></_>
    <_>
      <rects>
        <_>
          15 3 12 9 -1.</_>
        <_>
          18 6 6 9 2.</_></rects>
      <tilted>1</tilted></_>
    <_>
      <rects>
        <_>
          15 3 26 9 -1.</_>
        <_>
          12 6 26 3 3.</_></rects>
      <tilted>1</tilted></_>
    <_>
      <rects>
        <_>
          15 4 6 11 -1.</_>
        <_>
          17 6 2 11 3.</_></rects>
      <tilted>1</tilted></_>
    <_>
      <rects>
        <_>
          15 23 3 3 -1.</_>
        <_>
          15 24 3 1 3.</_></rects>
      <tilted>0</tilted></_>
    <_>
      <rects>
        <_>
          15 30 4 3 -1.</_>
        <_>
          15 31 4 1 3.</_></rects>
      <tilted>0</tilted></_>
    <_>
      <rects>
        <_>
          15 35 3 1 -1.</_>
        <_>
          16 35 1 1 3.</_></rects>
      <tilted>0</tilted></_>
    <_>
      <rects>
        <_>
          15 54 12 20 -1.</_>
        <_>
          15 59 12 10 2.</_></rects>
      <tilted>0</tilted></_>
    <_>
      <rects>
        <_>
          15 70 5 4 -1.</_>
        <_>
          15 72 5 2 2.</_></rects>
      <tilted>0</tilted></_>
    <_>
      <rects>
        <_>
          15 71 6 2 -1.</_>
        <_>
          15 72 6 1 2.</_></rects>
      <tilted>0</tilted></_>
    <_>
      <rects>
        <_>
          16 0 26 8 -1.</_>
        <_>
          16 0 26 4 2.</_></rects>
      <tilted>1</tilted></_>
    <_>
      <rects>
        <_>
          16 1 3 10 -1.</_>
        <_>
          16 6 3 5 2.</_></rects>
      <tilted>0</tilted></_>
    <_>
      <rects>
        <_>
          16 1 12 8 -1.</_>
        <_>
          20 5 4 8 3.</_></rects>
      <tilted>1</tilted></_>
    <_>
      <rects>
        <_>
          16 2 1 10 -1.</_>
        <_>
          16 7 1 5 2.</_></rects>
      <tilted>0</tilted></_>
    <_>
      <rects>
        <_>
          16 6 9 13 -1.</_>
        <_>
          19 9 3 13 3.</_></rects>
      <tilted>1</tilted></_>
    <_>
      <rects>
        <_>
          16 21 27 15 -1.</_>
        <_>
          25 26 9 5 9.</_></rects>
      <tilted>0</tilted></_>
    <_>
      <rects>
        <_>
          16 33 2 2 -1.</_>
        <_>
          16 33 1 1 2.</_>
        <_>
          17 34 1 1 2.</_></rects>
      <tilted>0</tilted></_>
    <_>
      <rects>
        <_>
          16 36 13 8 -1.</_>
        <_>
          16 38 13 4 2.</_></rects>
      <tilted>0</tilted></_>
    <_>
      <rects>
        <_>
          16 37 3 1 -1.</_>
        <_>
          17 37 1 1 3.</_></rects>
      <tilted>0</tilted></_>
    <_>
      <rects>
        <_>
          16 37 8 8 -1.</_>
        <_>
          14 39 8 4 2.</_></rects>
      <tilted>1</tilted></_>
    <_>
      <rects>
        <_>
          16 42 14 15 -1.</_>
        <_>
          16 42 7 15 2.</_></rects>
      <tilted>1</tilted></_>
    <_>
      <rects>
        <_>
          16 72 1 2 -1.</_>
        <_>
          16 73 1 1 2.</_></rects>
      <tilted>0</tilted></_>
    <_>
      <rects>
        <_>
          17 6 6 12 -1.</_>
        <_>
          19 8 2 12 3.</_></rects>
      <tilted>1</tilted></_>
    <_>
      <rects>
        <_>
          17 28 3 3 -1.</_>
        <_>
          18 29 1 3 3.</_></rects>
      <tilted>1</tilted></_>
    <_>
      <rects>
        <_>
          17 33 2 1 -1.</_>
        <_>
          17 33 1 1 2.</_></rects>
      <tilted>1</tilted></_>
    <_>
      <rects>
        <_>
          17 39 3 1 -1.</_>
        <_>
          18 39 1 1 3.</_></rects>
      <tilted>0</tilted></_>
    <_>
      <rects>
        <_>
          17 39 11 4 -1.</_>
        <_>
          17 40 11 2 2.</_></rects>
      <tilted>0</tilted></_>
    <_>
      <rects>
        <_>
          17 55 15 15 -1.</_>
        <_>
          17 60 15 5 3.</_></rects>
      <tilted>0</tilted></_>
    <_>
      <rects>
        <_>
          17 61 4 6 -1.</_>
        <_>
          17 61 2 6 2.</_></rects>
      <tilted>1</tilted></_>
    <_>
      <rects>
        <_>
          17 61 12 11 -1.</_>
        <_>
          23 61 6 11 2.</_></rects>
      <tilted>0</tilted></_>
    <_>
      <rects>
        <_>
          17 66 6 8 -1.</_>
        <_>
          17 70 6 4 2.</_></rects>
      <tilted>0</tilted></_>
    <_>
      <rects>
        <_>
          17 68 4 6 -1.</_>
        <_>
          17 71 4 3 2.</_></rects>
      <tilted>0</tilted></_>
    <_>
      <rects>
        <_>
          17 68 5 6 -1.</_>
        <_>
          17 71 5 3 2.</_></rects>
      <tilted>0</tilted></_>
    <_>
      <rects>
        <_>
          17 70 1 4 -1.</_>
        <_>
          17 72 1 2 2.</_></rects>
      <tilted>0</tilted></_>
    <_>
      <rects>
        <_>
          17 71 1 2 -1.</_>
        <_>
          17 71 1 1 2.</_></rects>
      <tilted>1</tilted></_>
    <_>
      <rects>
        <_>
          18 2 4 10 -1.</_>
        <_>
          19 3 2 10 2.</_></rects>
      <tilted>1</tilted></_>
    <_>
      <rects>
        <_>
          18 2 14 56 -1.</_>
        <_>
          18 30 14 28 2.</_></rects>
      <tilted>0</tilted></_>
    <_>
      <rects>
        <_>
          18 3 23 12 -1.</_>
        <_>
          14 7 23 4 3.</_></rects>
      <tilted>1</tilted></_>
    <_>
      <rects>
        <_>
          18 6 4 7 -1.</_>
        <_>
          19 7 2 7 2.</_></rects>
      <tilted>1</tilted></_>
    <_>
      <rects>
        <_>
          18 11 15 30 -1.</_>
        <_>
          18 26 15 15 2.</_></rects>
      <tilted>0</tilted></_>
    <_>
      <rects>
        <_>
          18 15 16 14 -1.</_>
        <_>
          18 22 16 7 2.</_></rects>
      <tilted>0</tilted></_>
    <_>
      <rects>
        <_>
          18 33 12 12 -1.</_>
        <_>
          18 37 12 4 3.</_></rects>
      <tilted>0</tilted></_>
    <_>
      <rects>
        <_>
          18 38 3 2 -1.</_>
        <_>
          19 38 1 2 3.</_></rects>
      <tilted>0</tilted></_>
    <_>
      <rects>
        <_>
          18 39 3 1 -1.</_>
        <_>
          19 39 1 1 3.</_></rects>
      <tilted>0</tilted></_>
    <_>
      <rects>
        <_>
          18 52 22 13 -1.</_>
        <_>
          29 52 11 13 2.</_></rects>
      <tilted>0</tilted></_>
    <_>
      <rects>
        <_>
          18 53 18 14 -1.</_>
        <_>
          18 53 9 7 2.</_>
        <_>
          27 60 9 7 2.</_></rects>
      <tilted>0</tilted></_>
    <_>
      <rects>
        <_>
          18 71 2 2 -1.</_>
        <_>
          18 72 2 1 2.</_></rects>
      <tilted>0</tilted></_>
    <_>
      <rects>
        <_>
          19 35 12 9 -1.</_>
        <_>
          19 38 12 3 3.</_></rects>
      <tilted>0</tilted></_>
    <_>
      <rects>
        <_>
          19 36 14 17 -1.</_>
        <_>
          19 36 7 17 2.</_></rects>
      <tilted>1</tilted></_>
    <_>
      <rects>
        <_>
          19 54 6 12 -1.</_>
        <_>
          19 60 6 6 2.</_></rects>
      <tilted>0</tilted></_>
    <_>
      <rects>
        <_>
          19 60 24 14 -1.</_>
        <_>
          27 60 8 14 3.</_></rects>
      <tilted>0</tilted></_>
    <_>
      <rects>
        <_>
          19 61 12 9 -1.</_>
        <_>
          25 61 6 9 2.</_></rects>
      <tilted>0</tilted></_>
    <_>
      <rects>
        <_>
          20 1 6 11 -1.</_>
        <_>
          22 3 2 11 3.</_></rects>
      <tilted>1</tilted></_>
    <_>
      <rects>
        <_>
          20 3 19 62 -1.</_>
        <_>
          20 34 19 31 2.</_></rects>
      <tilted>0</tilted></_>
    <_>
      <rects>
        <_>
          20 13 12 56 -1.</_>
        <_>
          20 27 12 28 2.</_></rects>
      <tilted>0</tilted></_>
    <_>
      <rects>
        <_>
          20 40 3 2 -1.</_>
        <_>
          21 40 1 2 3.</_></rects>
      <tilted>0</tilted></_>
    <_>
      <rects>
        <_>
          20 48 22 15 -1.</_>
        <_>
          31 48 11 15 2.</_></rects>
      <tilted>0</tilted></_>
    <_>
      <rects>
        <_>
          20 57 10 8 -1.</_>
        <_>
          20 59 10 4 2.</_></rects>
      <tilted>0</tilted></_>
    <_>
      <rects>
        <_>
          21 0 14 1 -1.</_>
        <_>
          28 0 7 1 2.</_></rects>
      <tilted>0</tilted></_>
    <_>
      <rects>
        <_>
          21 7 16 9 -1.</_>
        <_>
          25 11 8 9 2.</_></rects>
      <tilted>1</tilted></_>
    <_>
      <rects>
        <_>
          21 32 14 15 -1.</_>
        <_>
          21 37 14 5 3.</_></rects>
      <tilted>0</tilted></_>
    <_>
      <rects>
        <_>
          21 35 7 9 -1.</_>
        <_>
          21 38 7 3 3.</_></rects>
      <tilted>0</tilted></_>
    <_>
      <rects>
        <_>
          21 45 6 1 -1.</_>
        <_>
          23 47 2 1 3.</_></rects>
      <tilted>1</tilted></_>
    <_>
      <rects>
        <_>
          21 45 18 2 -1.</_>
        <_>
          21 45 9 2 2.</_></rects>
      <tilted>1</tilted></_>
    <_>
      <rects>
        <_>
          21 47 3 3 -1.</_>
        <_>
          22 48 1 1 9.</_></rects>
      <tilted>0</tilted></_>
    <_>
      <rects>
        <_>
          21 48 2 1 -1.</_>
        <_>
          22 48 1 1 2.</_></rects>
      <tilted>0</tilted></_>
    <_>
      <rects>
        <_>
          21 48 12 22 -1.</_>
        <_>
          27 48 6 22 2.</_></rects>
      <tilted>0</tilted></_>
    <_>
      <rects>
        <_>
          21 48 22 6 -1.</_>
        <_>
          32 48 11 6 2.</_></rects>
      <tilted>0</tilted></_>
    <_>
      <rects>
        <_>
          21 57 11 8 -1.</_>
        <_>
          21 59 11 4 2.</_></rects>
      <tilted>0</tilted></_>
    <_>
      <rects>
        <_>
          22 11 9 32 -1.</_>
        <_>
          22 27 9 16 2.</_></rects>
      <tilted>0</tilted></_>
    <_>
      <rects>
        <_>
          22 33 8 12 -1.</_>
        <_>
          22 36 8 6 2.</_></rects>
      <tilted>0</tilted></_>
    <_>
      <rects>
        <_>
          22 43 2 15 -1.</_>
        <_>
          22 48 2 5 3.</_></rects>
      <tilted>0</tilted></_>
    <_>
      <rects>
        <_>
          22 44 4 2 -1.</_>
        <_>
          23 45 2 2 2.</_></rects>
      <tilted>1</tilted></_>
    <_>
      <rects>
        <_>
          22 44 7 16 -1.</_>
        <_>
          22 44 7 8 2.</_></rects>
      <tilted>1</tilted></_>
    <_>
      <rects>
        <_>
          22 49 6 3 -1.</_>
        <_>
          24 50 2 1 9.</_></rects>
      <tilted>0</tilted></_>
    <_>
      <rects>
        <_>
          22 50 3 3 -1.</_>
        <_>
          23 51 1 1 9.</_></rects>
      <tilted>0</tilted></_>
    <_>
      <rects>
        <_>
          22 50 1 8 -1.</_>
        <_>
          22 54 1 4 2.</_></rects>
      <tilted>0</tilted></_>
    <_>
      <rects>
        <_>
          22 58 1 16 -1.</_>
        <_>
          22 66 1 8 2.</_></rects>
      <tilted>0</tilted></_>
    <_>
      <rects>
        <_>
          22 61 8 5 -1.</_>
        <_>
          22 61 4 5 2.</_></rects>
      <tilted>1</tilted></_>
    <_>
      <rects>
        <_>
          23 16 12 16 -1.</_>
        <_>
          23 24 12 8 2.</_></rects>
      <tilted>0</tilted></_>
    <_>
      <rects>
        <_>
          23 45 20 16 -1.</_>
        <_>
          33 45 10 16 2.</_></rects>
      <tilted>0</tilted></_>
    <_>
      <rects>
        <_>
          23 47 20 12 -1.</_>
        <_>
          33 47 10 12 2.</_></rects>
      <tilted>0</tilted></_>
    <_>
      <rects>
        <_>
          23 48 2 1 -1.</_>
        <_>
          24 48 1 1 2.</_></rects>
      <tilted>0</tilted></_>
    <_>
      <rects>
        <_>
          23 48 20 9 -1.</_>
        <_>
          33 48 10 9 2.</_></rects>
      <tilted>0</tilted></_>
    <_>
      <rects>
        <_>
          23 50 2 2 -1.</_>
        <_>
          23 51 2 1 2.</_></rects>
      <tilted>0</tilted></_>
    <_>
      <rects>
        <_>
          23 50 12 8 -1.</_>
        <_>
          23 50 6 4 2.</_>
        <_>
          29 54 6 4 2.</_></rects>
      <tilted>0</tilted></_>
    <_>
      <rects>
        <_>
          23 51 10 17 -1.</_>
        <_>
          28 51 5 17 2.</_></rects>
      <tilted>0</tilted></_>
    <_>
      <rects>
        <_>
          23 55 14 8 -1.</_>
        <_>
          23 55 7 4 2.</_>
        <_>
          30 59 7 4 2.</_></rects>
      <tilted>0</tilted></_>
    <_>
      <rects>
        <_>
          23 60 9 6 -1.</_>
        <_>
          26 62 3 2 9.</_></rects>
      <tilted>0</tilted></_>
    <_>
      <rects>
        <_>
          24 16 9 14 -1.</_>
        <_>
          24 23 9 7 2.</_></rects>
      <tilted>0</tilted></_>
    <_>
      <rects>
        <_>
          24 23 16 27 -1.</_>
        <_>
          28 23 8 27 2.</_></rects>
      <tilted>0</tilted></_>
    <_>
      <rects>
        <_>
          24 29 15 5 -1.</_>
        <_>
          29 29 5 5 3.</_></rects>
      <tilted>0</tilted></_>
    <_>
      <rects>
        <_>
          24 45 2 1 -1.</_>
        <_>
          24 45 1 1 2.</_></rects>
      <tilted>1</tilted></_>
    <_>
      <rects>
        <_>
          24 46 1 3 -1.</_>
        <_>
          24 47 1 1 3.</_></rects>
      <tilted>0</tilted></_>
    <_>
      <rects>
        <_>
          24 48 3 6 -1.</_>
        <_>
          25 50 1 2 9.</_></rects>
      <tilted>0</tilted></_>
    <_>
      <rects>
        <_>
          24 54 2 15 -1.</_>
        <_>
          19 59 2 5 3.</_></rects>
      <tilted>1</tilted></_>
    <_>
      <rects>
        <_>
          25 13 18 3 -1.</_>
        <_>
          25 14 18 1 3.</_></rects>
      <tilted>0</tilted></_>
    <_>
      <rects>
        <_>
          25 15 7 6 -1.</_>
        <_>
          23 17 7 2 3.</_></rects>
      <tilted>1</tilted></_>
    <_>
      <rects>
        <_>
          25 29 15 3 -1.</_>
        <_>
          30 29 5 3 3.</_></rects>
      <tilted>0</tilted></_>
    <_>
      <rects>
        <_>
          25 30 15 21 -1.</_>
        <_>
          30 30 5 21 3.</_></rects>
      <tilted>0</tilted></_>
    <_>
      <rects>
        <_>
          25 47 1 4 -1.</_>
        <_>
          25 48 1 2 2.</_></rects>
      <tilted>0</tilted></_>
    <_>
      <rects>
        <_>
          25 48 1 10 -1.</_>
        <_>
          25 53 1 5 2.</_></rects>
      <tilted>0</tilted></_>
    <_>
      <rects>
        <_>
          25 56 1 15 -1.</_>
        <_>
          25 61 1 5 3.</_></rects>
      <tilted>0</tilted></_>
    <_>
      <rects>
        <_>
          25 61 3 3 -1.</_>
        <_>
          26 62 1 1 9.</_></rects>
      <tilted>0</tilted></_>
    <_>
      <rects>
        <_>
          26 15 8 7 -1.</_>
        <_>
          26 15 4 7 2.</_></rects>
      <tilted>1</tilted></_>
    <_>
      <rects>
        <_>
          26 15 15 9 -1.</_>
        <_>
          23 18 15 3 3.</_></rects>
      <tilted>1</tilted></_>
    <_>
      <rects>
        <_>
          26 44 2 3 -1.</_>
        <_>
          26 44 1 3 2.</_></rects>
      <tilted>1</tilted></_>
    <_>
      <rects>
        <_>
          26 47 1 3 -1.</_>
        <_>
          25 48 1 1 3.</_></rects>
      <tilted>1</tilted></_>
    <_>
      <rects>
        <_>
          26 62 6 2 -1.</_>
        <_>
          26 62 3 1 2.</_>
        <_>
          29 63 3 1 2.</_></rects>
      <tilted>0</tilted></_>
    <_>
      <rects>
        <_>
          27 14 11 6 -1.</_>
        <_>
          25 16 11 2 3.</_></rects>
      <tilted>1</tilted></_>
    <_>
      <rects>
        <_>
          27 17 16 5 -1.</_>
        <_>
          31 21 8 5 2.</_></rects>
      <tilted>1</tilted></_>
    <_>
      <rects>
        <_>
          27 17 6 14 -1.</_>
        <_>
          27 24 6 7 2.</_></rects>
      <tilted>0</tilted></_>
    <_>
      <rects>
        <_>
          27 20 12 6 -1.</_>
        <_>
          31 24 4 6 3.</_></rects>
      <tilted>1</tilted></_>
    <_>
      <rects>
        <_>
          27 22 7 12 -1.</_>
        <_>
          27 26 7 4 3.</_></rects>
      <tilted>0</tilted></_>
    <_>
      <rects>
        <_>
          27 35 6 12 -1.</_>
        <_>
          29 39 2 4 9.</_></rects>
      <tilted>0</tilted></_>
    <_>
      <rects>
        <_>
          27 39 16 21 -1.</_>
        <_>
          35 39 8 21 2.</_></rects>
      <tilted>0</tilted></_>
    <_>
      <rects>
        <_>
          27 61 1 12 -1.</_>
        <_>
          27 61 1 6 2.</_></rects>
      <tilted>1</tilted></_>
    <_>
      <rects>
        <_>
          27 62 2 2 -1.</_>
        <_>
          28 62 1 2 2.</_></rects>
      <tilted>0</tilted></_>
    <_>
      <rects>
        <_>
          28 18 3 6 -1.</_>
        <_>
          28 21 3 3 2.</_></rects>
      <tilted>0</tilted></_>
    <_>
      <rects>
        <_>
          28 27 12 5 -1.</_>
        <_>
          34 27 6 5 2.</_></rects>
      <tilted>0</tilted></_>
    <_>
      <rects>
        <_>
          28 35 3 9 -1.</_>
        <_>
          29 38 1 3 9.</_></rects>
      <tilted>0</tilted></_>
    <_>
      <rects>
        <_>
          28 51 7 4 -1.</_>
        <_>
          28 51 7 2 2.</_></rects>
      <tilted>1</tilted></_>
    <_>
      <rects>
        <_>
          28 58 6 2 -1.</_>
        <_>
          30 60 2 2 3.</_></rects>
      <tilted>1</tilted></_>
    <_>
      <rects>
        <_>
          28 60 4 6 -1.</_>
        <_>
          26 62 4 2 3.</_></rects>
      <tilted>1</tilted></_>
    <_>
      <rects>
        <_>
          29 13 2 48 -1.</_>
        <_>
          29 37 2 24 2.</_></rects>
      <tilted>0</tilted></_>
    <_>
      <rects>
        <_>
          29 17 12 6 -1.</_>
        <_>
          29 17 12 3 2.</_></rects>
      <tilted>1</tilted></_>
    <_>
      <rects>
        <_>
          29 18 10 46 -1.</_>
        <_>
          29 41 10 23 2.</_></rects>
      <tilted>0</tilted></_>
    <_>
      <rects>
        <_>
          29 27 12 8 -1.</_>
        <_>
          35 27 6 8 2.</_></rects>
      <tilted>0</tilted></_>
    <_>
      <rects>
        <_>
          29 32 12 15 -1.</_>
        <_>
          33 32 4 15 3.</_></rects>
      <tilted>0</tilted></_>
    <_>
      <rects>
        <_>
          29 54 2 5 -1.</_>
        <_>
          29 54 1 5 2.</_></rects>
      <tilted>1</tilted></_>
    <_>
      <rects>
        <_>
          29 56 6 5 -1.</_>
